0.282131189726 -0.266869352415 0.131907253243 -1.64570564321 -1.05682679578 -0.0734629363065 -0.0628558628423 -0.429628749198 0.866118245828 0.0731708376889 -0.407642650204 -0.100253906956 0.233796308477 1.49670387271 -0.136157160102 -0.0283939089564 0.227275172901 -0.049762732549 0.411091878257 0.220899530227 -0.128880554531 -0.545135855627 -1.19650618729 1.30663578789 -0.390181282719 1.05044672085 -1.31564646463 0.0178647834215 -1.60612564228 -0.550099584795 -0.0177476927647
-0.422831202692 0.075424605253 -0.0446292958569 0.0573348024135 -0.411459344187 0.516968468431 -0.204816898064 -0.838261670288 -0.229759155131 -0.0190975554181 0.00513706272414 0.797292564854 0.964084866898 0.511403575782 0.730498276087 -0.0756389901963 -0.00193669653907 0.753295662367 0.0127235042662 -0.877962804379 -0.518144549886 0.346835163678 0.361017153093 -0.0338842789971 -0.915052691793 -0.815613466899 -0.10887388038 -0.148597697205 0.125888085465 -0.271784877507 0.0964149969391
-1.39441885245 0.585805842681 -0.61675176178 2.7234607684 1.0188769619 1.9445021496 -0.190828368922 -1.2991770415 -1.77131510343 0.0358052445483 0.257853614328 2.40176484392 1.9147976778 -0.773135860074 2.51907979197 0.0310034311128 -0.473898163251 2.13523204835 -0.481306574904 -2.43233241007 -1.02173974043 2.13117704855 2.82646298552 -1.98452254282 -2.20509318279 -2.50631042025 1.96932506341 -0.149276097587 2.63266196533 0.479688836006 0.0236008445826
0.0411009511 -0.579616910158 0.3391597458 -1.76648885387 -0.791864293437 0.0125572821343 -0.0308827491571 -0.476645263139 0.472755093207 -0.0548938121096 -0.0978492603074 0.103621723992 -0.322316658969 0.743483580087 -0.537097240426 -0.125460222844 0.421788491994 -0.599455971843 -0.0468558450518 0.0237627183912 0.0689572065814 -0.566849889282 -0.990067016021 1.55427027872 -0.121045197296 0.822193103754 -0.728607278937 -0.185771180801 -1.58650514198 -0.0189010271363 0.0339823173724
-0.622048505812 -0.10524668602 0.244083206456 -0.175753527976 -0.388268777234 0.0567613390012 -0.196254632039 -0.946568263596 0.0563295036476 -0.0179511167732 0.0952431298689 0.281155405004 0.708972020233 0.310836871036 -0.109894087945 -0.106854291624 0.101711955205 0.457808286638 -0.0774626420442 -0.865060495687 -0.381346519571 0.443135145692 0.0467517261237 0.234421269915 -0.611455280245 -0.398384896431 -0.437412700255 -0.0811041281412 0.000829852144792 -0.181605506674 -0.0369739877596
-1.46009263361 0.758883713577 -0.0533246254173 2.25502930241 0.36869848964 0.692535929012 -0.180190647323 -1.29998594608 -1.02591310628 -0.0339551038477 0.130680942237 1.11976098191 2.05960882656 -0.61024984774 0.713346490893 -0.0473387988966 -0.202616861034 1.98349757422 0.0146671732022 -2.05878046285 -0.505320663431 2.30888198607 1.96430088761 -1.31866989768 -1.5808166358 -1.93394089281 0.784785085987 -0.13730269761 2.57630548623 0.10901492305 -0.0861597625498
-0.363854926889 -0.763462305888 0.392337864449 -1.76485483801 0.0332554199416 0.312943039703 -0.0934982800424 -0.494967860181 0.196636744881 0.0790475284984 -0.116487249714 0.355351248049 -0.505293278254 0.349196207322 -0.124329593467 -0.0152297605894 0.324164822831 -0.973105065699 -0.499501626962 0.583809771311 0.116514451548 -0.853192687279 -0.649910409072 1.39105321831 -0.0969537621405 0.378101727517 0.0632941223208 -0.126021477687 -1.26234142579 0.593469236653 -0.037457042017
-0.85181943392 0.0141562785959 0.313202389807 -0.164699676903 0.0240998427093 0.0498790708519 0.00532842255817 -0.771992975544 -0.0117328397376 0.0405389290514 0.135279352332 0.318166974694 0.44064721047 0.0793230524474 -0.150210594891 -0.13905910654 0.145994372326 0.146667748191 -0.253998344927 -0.209619715346 -0.167174134689 0.231883921264 0.166710649259 0.267266144192 -0.616302594194 -0.703621692449 -0.163546237445 -0.181342685606 0.193338387014 0.0277599986416 -0.0795503768985
-1.35992660044 1.06173199378 0.0619829717422 2.22573713695 0.232690374318 0.356265528492 -0.0702006983638 -0.835928820276 -0.663089016687 -0.175676086381 0.184450815955 0.565507873393 1.93824433141 -0.332215232917 -0.110061769376 -0.122969110158 -0.275565107463 1.72831133337 0.115099249805 -1.11138622786 -0.598271101584 2.28092952988 1.70117962941 -1.32048617447 -1.35160996239 -1.79000276857 0.330085035428 -0.0497748455236 2.53817258369 -0.070745838666 -0.0140041836319
-0.346306695606 -0.651587924743 0.286311533894 -1.57748260167 0.241130253836 0.217465290731 0.0106955127657 0.00788541449509 0.397591220779 -0.0328115223802 -0.213956793949 0.163943280739 -0.289542875441 0.268784363908 -0.745409420983 -0.0066035054289 0.187854593868 -0.589614390733 -0.387620120146 0.534812583389 -0.152004478736 -0.777920473376 -0.570588772526 1.01773419806 -0.211488003966 0.340989473138 0.132442083801 -0.0584962675038 -1.30908732528 0.471872675501 0.0692650421896
-0.770784145485 0.0375207592968 0.115959645691 -0.0353271197172 0.0900396426353 0.146892303036 -0.147687207653 -0.226378619908 0.174384422218 -0.0419334765136 0.132293373044 0.0531229287774 0.681502950604 0.143504114827 -0.675348562038 -0.115608923148 -0.227369992633 0.479431337477 -0.367231348239 0.0216581845786 -0.394247418095 0.192647248662 0.14430145574 -0.239340105358 -0.856546000753 -0.623236137796 -0.102073507258 -0.18748808224 0.389789746172 -0.13763360818 -0.0237744210474
-1.22296524827 1.1701449628 -0.0203483965616 2.12609891829 0.249951718166 -0.164220248564 -0.0750281954985 -0.344654941559 -0.224719274391 -0.130745047688 0.00776913220168 -0.0363673619316 2.05719763019 -0.158187077465 -0.979428719634 0.0349662169704 -0.389950623655 2.07497012497 0.311998139853 -0.460956826865 -0.660978587981 1.93679464055 1.09382995003 -1.49877548425 -1.25045896186 -1.30655074486 -0.0110090807147 0.00386390106534 2.52814561622 -0.311765087957 0.0103823325598
-0.0868864926483 -0.689982026004 0.212844617556 -1.71687995261 0.354145948135 0.414217711382 -0.149200123403 0.257641056541 -0.0753059874388 -0.0993136820005 -0.1241901833 0.271358807564 -0.183205603845 -0.0491158311823 -0.642145000653 -0.158834056587 0.266587208354 -0.48839602614 -0.301666782082 0.450232826299 0.00737006286914 -0.784164072372 -0.461261776632 0.976636429499 -0.202041981401 0.804113016267 0.0466971600375 -0.00762710519222 -1.45111445352 0.444073571631 0.0587832500627
-0.364311911382 0.0573383342947 0.141912435369 -0.241100904074 0.099245251587 -0.133060290624 -0.0534038596526 0.103976085952 -0.225893667782 -0.097619567339 -8.46807286299e-05 -0.207923264983 0.984641587417 -0.12150753881 -0.737618945191 -0.124397631617 0.00965296168903 0.547447955749 -0.00936458554012 -0.0522175099951 -0.412385670072 0.464953357832 0.06920559844 -0.2741935006 -0.752208517859 -0.1137826729 -0.313532650145 -0.172781940406 0.17385967659 -0.305216905111 0.0630001109498
-0.805908625859 1.26020206203 -0.0367931202987 2.08089760467 -0.114790984164 -0.539213776873 -0.162562147408 0.00161000072503 -0.411020864313 -0.143859731228 0.130802161183 -0.621955147306 2.56384962255 -0.048694382253 -1.12647639166 -0.101320243494 -0.304792513958 2.33150647813 0.605424071811 -0.343342618327 -0.614512052663 2.31526233756 0.79889041638 -1.60489006224 -1.38437907477 -0.923058302824 -0.551471569929 0.0343344415419 2.43863161701 -0.605645595802 0.0617244069419
0.156069318743 -0.85664214903 0.390234590586 -1.6757434686 0.692457150971 0.24246159764 0.0247037699641 0.200733997244 -0.422181059559 -0.0563759020063 -0.0765997830009 0.08249313378 -0.384970060549 -0.179328999368 0.204987077424 -0.0174544816931 0.285757546736 -0.745038583379 -0.623171585809 0.378725324906 0.0209498345511 -0.668864997006 -0.370458361434 1.30099215669 -0.0401986000237 0.849673410614 0.208903017595 0.00306545067576 -1.19097061357 0.425919888106 0.0587382747504
0.0331947809802 -0.00593332135071 0.140698270158 -0.147077909547 0.203561948558 -0.415315870039 -0.105019500021 0.209695530074 -0.18258515208 -0.147218250413 0.142794385146 -0.260678596166 0.629560114169 -0.0836583393746 -0.103980863173 -0.0849978171964 -0.124189817369 0.199084720398 -0.166824839986 -0.00624810565076 -0.405995346338 0.503154704854 -0.0343184614023 0.0571999477886 -0.600884786592 -0.0525887386447 -0.266324554505 -0.162324142996 0.347819080706 -0.139396150052 0.0455345196861
-0.217997594118 1.27883527091 -0.190585610525 2.01639933876 -0.415597832028 -0.806774016396 0.00346870164158 0.223548052012 0.0782874481472 -0.221758421648 -0.0584002982955 -0.761464826827 2.05188105234 0.434679149424 -0.852758297508 0.0219477608502 -0.285716675298 1.95000764149 0.751811207874 0.063816976432 -0.533741271893 2.44035940695 0.586181832058 -1.04752097311 -1.36839797937 -0.494246339648 -0.721665954846 0.0306364517758 2.40113444666 -0.588614845523 -0.00608596059792
0.192157828094 -1.08898383402 0.239481646159 -1.5053729752 0.777246042758 0.0566010531897 0.0233319596414 0.0648260743031 -1.01093314208 -0.145606677376 0.161346333977 0.136783733131 -0.257432451273 -1.21304078585 0.803435457846 -0.12196282776 0.359583524684 -0.703737707682 -1.31002601441 0.202604097611 -0.0300535088182 -0.721077775111 -0.52206820932 1.02884851056 -0.0732660923367 0.369233855082 0.64215229593 -0.130485216474 -1.26537826679 0.746647314475 -0.0364056408008
0.445789318395 0.0124464924697 0.0637715456716 -0.292059860827 0.213636147882 -0.28887317566 -0.0812622216884 0.225313251189 -0.145877792978 -0.24028451818 0.108218121205 -0.198971601243 0.62032287416 -0.591763370427 0.153558250128 -0.0212478532227 -0.00674174364371 0.128718965043 -0.438750341762 0.477830068374 -0.305895563678 0.400539565809 -0.165625772748 0.173579290743 -0.910060403851 -0.142374361271 -0.15706977362 0.0193601776622 0.158286667609 -0.0820831263388 -0.0946211057446
0.585136407072 1.47666149856 -0.289160184672 1.89634472513 -0.745613727586 -1.14386527711 0.00380973443695 0.572829322917 1.17512892571 -0.176274986125 -0.144820507235 -0.934703141317 2.0756586842 0.439160235755 -0.859490968278 -0.0494418790642 -0.342955601197 1.93282322303 1.0689167889 1.10543943575 -0.44697935447 2.32636539719 0.567021377105 -1.08626479282 -1.68097835633 -0.373283445549 -0.849098937049 0.131290893512 2.30325443985 -0.619487400764 -0.0232049867814
0.0570999180059 -1.07016870733 0.308802543574 -1.22241152381 0.900142563505 -0.284256138122 -0.190863605995 0.0458392116674 -1.36953780953 -0.089017021995 -0.0298786086862 -0.00958707950692 -0.0337879911485 -2.08366759729 0.913342546716 -0.0450656959727 0.220006576304 -0.356494220187 -1.66699255079 0.0191150652106 0.0152023837227 -0.267474876489 -0.474079349411 1.47459128894 0.20805142093 0.442008504582 0.818995173754 -0.0855621280175 -1.07519088274 0.856843084532 -0.0685678413657
0.914946004316 0.339876030162 -0.0873488410045 -0.0747123946129 0.0520460616449 -0.858404889935 0.0574683694762 0.50685280356 0.468837451036 -0.138831863061 -0.193619455477 -0.483033970629 0.960957543345 -0.534219824762 0.238283771463 -0.0626337098259 -0.371887512765 0.591591076355 0.0808564259746 0.922900955627 -0.534021473435 0.936271365628 -0.290710747274 0.0938203539946 -1.0801997891 0.0643389943754 -0.45982071578 0.0113795348812 0.0605166675729 -0.429685193407 0.0166074328813
1.76097732755 2.32653507588 -0.716766805426 1.74739455561 -1.36997908176 -1.78715528726 0.187143299888 1.63179867173 3.15940394862 -0.215558268186 -0.745898137479 -1.40961153901 2.30169308969 1.50462558038 -1.07533326994 0.14836154032 -0.914396517755 2.16593039653 2.46933301653 2.4058738644 -0.881243466478 2.72260770405 0.141209739725 -1.62700119964 -2.55007936063 -0.0934196640942 -1.64752082662 0.242179093398 2.30651109277 -1.56536845185 0.0356757313917
0.357196148159 -0.157605724738 -0.0991588702911 -1.43123059338 -1.09714227157 -0.387810433744 -0.122981837213 -0.233895922685 0.618556379243 -0.17067609115 -0.00692537498464 -0.59760842157 0.217118208007 1.29558236617 -0.497283287202 -0.0445882400853 0.112712624729 -0.0499801161644 0.416165759124 -0.0966365968948 -0.051444301921 -0.208986597546 -1.21344831142 1.05059728355 -0.187726214287 0.852376563534 -1.3020997108 0.00907271620356 -1.46939772302 -0.605353562545 -0.00667538694909
-0.297522719502 -0.139329009189 -0.13071599594 -0.689607204929 -0.341206723373 0.202240896434 -0.0140611574601 -0.521843965638 -0.401525960321 0.0254628648371 0.110604598244 0.28871155297 0.438836077737 0.364949676152 0.684522702747 -0.0541314935862 -0.0530242020316 0.295977903372 -0.0487513009348 -0.858024113095 -0.220923909852 0.257373999126 -0.150719425936 0.18449073686 -0.404272559789 -0.169270856077 -0.0596710856353 -0.110506451282 -0.569542251494 -0.0256585212694 0.0128281868204
-0.868534816673 0.0397866190574 -0.529872601598 0.750730465546 0.894271079371 1.68995060564 -0.143001068177 -0.643483280087 -1.23064202685 0.1135251438 0.089937625428 1.98507979176 0.756865398945 -0.668601868673 2.36616300306 -0.0418423357556 -0.421151446524 0.921645664401 -0.363154712037 -1.59685192013 -0.601891748399 0.877645032894 1.95871916356 -1.38871921717 -1.30863920239 -1.34565824101 2.19849623402 -0.226473747645 0.846075621015 0.738023538693 0.0938706273112
0.0202793957389 -0.373502446895 -0.0421887165931 -1.0497481746 -0.914479927144 -0.169358021248 -0.0300214002092 -0.088504266804 0.531389322545 -0.0970682743297 -0.0006796362486 -0.0449782602311 0.138027199264 0.641683840863 -0.515399643425 -0.169061551888 -0.0340224303513 -0.00806973935772 0.131076814355 -0.100024035562 -0.149095556912 -0.227478457016 -0.53623238041 0.82755114849 -0.16215467157 0.239787065334 -0.848618987374 -0.018789717936 -1.20751644898 -0.0431440126618 0.0276917055552
-0.234361464134 -0.175897801847 -0.000156655440072 -0.582391422749 -0.654562273303 -0.0352471919838 -0.015933583279 -0.469707190016 0.17028087404 -0.0460691642235 0.166684308659 0.204610639976 0.296507507239 0.259709091529 -0.183052824461 -0.0809129609141 -0.0562029622213 0.195459619087 0.0661485546329 -0.48593329131 -0.170918032273 -0.0140167473045 -0.0865563828034 0.0993842462548 -0.407234237487 -0.243693339033 -0.26400825767 -0.0743977934326 -0.570014562779 0.0683571529577 -0.0112401282735
-0.835877081889 0.365932000534 -0.172203436743 0.476494268202 0.156149316663 0.641149346538 -0.0410261444488 -0.677389217521 -0.346408418437 0.0430822454645 -0.0619980097931 0.822567400832 0.772613361759 -0.240783960638 0.534186087491 -0.0907691258701 -0.077351443272 0.879990088836 0.0132430014712 -1.35299167307 -0.13463337336 0.899935597683 1.23776819338 -0.713278715637 -1.08734259188 -0.702301374222 0.854757676752 -0.117984025434 0.737611482708 0.470069946315 -0.0121608131005
0.0149077462154 -0.412104752467 0.145314005546 -1.23761155846 -0.189649259546 -0.201618251915 -0.110854534562 -0.123820050691 0.534037725276 -0.00171413182966 0.120628021779 -0.0611177465468 -0.115503169684 0.182403864417 -0.634359383758 -0.131374846217 0.0913414755719 -0.340962677535 -0.251164815081 0.353852268896 -0.115638373779 -0.52381324511 -0.557555097765 0.779209632632 -0.204722448855 0.126908414391 -0.356976605967 -0.12395930303 -0.998923621475 0.069423028824 0.0699086204044
-0.235412412074 -0.227709183352 0.12327720503 -0.6939921134 -0.0908658210391 -0.184202096057 -0.165966064754 -0.261399384352 0.267621846608 0.0210467497617 0.0667564048979 0.0237325436321 0.120683802098 0.202574381017 -0.395565191095 -0.133592786263 0.0296811568932 0.000922374047185 -0.282995942054 -0.056190830753 -0.228871575493 -0.189005686445 -0.194435370428 0.113744824235 -0.50335513309 -0.450695433585 -0.227808999044 -0.0821433135839 -0.392322536576 0.105949842055 0.0955604368784
-0.719281758103 0.287057381718 -0.139252631505 0.50308031047 0.433327475476 0.180977592203 -0.103763282603 -0.283370523191 -0.0651717933629 -0.116077901169 0.0339669332854 0.341386328758 0.66866520988 -0.12318620876 -0.22025418019 -0.157640551147 -0.223789061516 0.687461628234 0.0539322707462 -0.60818855632 -0.192960836847 0.791852251162 0.768618276112 -0.853881187187 -0.817011926243 -0.718460415537 0.328996346254 -0.0519607388287 0.860792298225 0.381750401316 -0.0100510886089
-0.170274901021 -0.264549607641 0.0659552483206 -1.19937984212 -0.215283675055 0.31789393147 -0.135881594031 0.075906444078 0.240881098055 -0.105578072099 -0.156233549963 0.252728096461 -0.0977905347433 0.0244557622601 -0.773779214836 -0.159458733533 0.0715730634458 -0.194811463185 -0.51979661418 0.469088847925 0.0261822154278 -0.594981852872 -0.190097305001 0.662858058808 0.239965282423 0.502354491517 -0.0917433053404 -0.122603922474 -1.05364704323 0.277977764864 0.068610027902
-0.433855907544 -0.209465116641 0.136103289709 -0.786120158331 -0.0386888017003 0.0336380121021 0.00184623205075 -0.339282640502 -0.100381247297 0.0244765732962 0.173355359513 -0.00437895757885 0.239694712514 -0.0383797535975 -0.584321908661 -0.0836311442938 -0.00223273257485 0.197755668927 -0.617969755299 -0.161937706476 -0.182575584001 -0.292948156235 -0.0493551162515 0.107556688274 0.125559628049 -0.178869675799 0.0581161669442 -0.0889983921734 -0.309456648679 0.125978088775 -0.041527932385
-0.768776542646 0.391714519479 0.0209324862942 0.195260946595 0.189615883817 0.0842814961705 -0.0145135565461 -0.165660409619 -0.407481669619 -0.0934407360881 0.131249692307 0.0755482411388 0.791780342787 -0.0370273509207 -0.536641521702 0.00443095341396 0.0529289409103 0.931016100312 -0.287112618285 -0.406801326697 -0.0573850788055 0.61236704291 0.358311025058 -0.789512169569 -0.256405541628 -0.331187568519 0.233148857527 -0.0386376471438 0.747726484019 0.147157364545 -0.0375071945499
-0.0650805464047 -0.204065564944 -0.103865699072 -0.950770274774 0.00306149725549 0.425365897613 -0.0202465505355 0.278557164821 -0.342770737372 -0.0683048420271 -0.290246853906 0.263969275844 -0.253263238967 -0.131170114259 -0.610945316353 -0.131550428309 0.0136921273549 -0.300744094164 -0.271438615026 0.295223586723 -0.107288888266 -0.329378440287 -0.0788542591808 0.891129502884 0.0935617930518 0.223442408634 0.126038942752 0.0126973144033 -1.09123160132 -0.125582398 -0.00318302837246
-0.270668741493 -0.0130464512167 0.0717629182083 -0.319295924147 -0.0604225773052 -0.0220987990168 -0.11418039331 0.0982208954717 -0.271263236029 -0.0386166649598 0.102601587133 -0.0788670693637 0.371753165002 -0.219192532039 -0.430211867395 -0.1632834331 -0.12066848231 0.109590109223 -0.263759429783 -0.224374119527 -0.295311409608 0.0650022077785 -0.124687618098 0.210869158795 -0.0170008216204 -0.18913237125 0.0480106962949 -0.0372207068697 -0.321297994143 -0.18232066031 0.06715585725
-0.434166010758 0.327394514005 -0.0778898472304 0.542832938105 0.165550925034 -0.102873687604 -0.170835789869 0.0730232016746 -0.44648770858 -0.0169910008074 0.17698945344 -0.0684616327065 0.776109634251 -0.0902435673638 -0.494762301628 -0.050625135047 -0.0878819675826 0.925904363723 0.0732076418512 -0.227738162461 -0.234335173109 0.742505868043 0.456139468763 -0.553622695511 -0.462457253522 -0.492203227851 0.332090372667 -0.0909094178836 0.659250261998 -0.167656042618 0.0541672338501
0.177373055241 -0.105541872082 0.0133815501354 -0.973542935709 0.130361223967 -0.248840308071 -0.124484624652 0.373142031651 -0.148086977795 -0.0438424552034 -0.13083267487 -0.206458325813 -0.109293794776 0.101843146128 0.0113981313874 -0.150433695467 0.00819533230543 -0.225240496308 -0.253089379507 0.0635938422141 -0.225141440916 -0.353879777904 -0.102098262381 0.752270786642 0.0549894010095 0.357761205563 -0.201434942793 -0.132484240561 -0.794448075382 -0.12282171143 -0.0703956759179
0.12829450034 0.0173121056652 0.0505662076074 -0.247842157338 0.00498904607521 -0.357617133975 -0.00935465306104 0.236238917279 -0.366532106279 -0.140672681424 0.0506833240674 -0.342813450667 0.254942881018 -0.102762188161 0.0304391042651 -0.0873198688141 -0.119799160105 -0.0130533991712 -0.0435441544433 -0.0619806585268 -0.338832313574 0.0981551069546 -0.0546879545023 0.252258699331 -0.035945357373 -0.0430309045318 -0.214636022225 -0.111058007635 -0.237667959238 -0.0215433871127 -0.077258245352
-0.148171958571 0.679885536417 -0.242807313098 0.65420382917 -0.0653035140374 -0.448217916734 -0.0187112085607 0.270119169919 0.124534105427 -0.181766930646 -0.0901251751828 -0.447755394199 0.688585668277 0.0926706104438 -0.128324859377 0.0442732819741 -0.261629237487 0.887456729884 0.389374291528 0.194928447527 -0.321555851568 1.0250941517 0.309435711423 -0.484705571584 -0.534289568293 -0.10254291518 -0.124162403502 -0.10712029668 0.915046566175 -0.177472081592 -0.0391011258859
0.0988350142988 -0.452375116365 0.105555794717 -0.693267594242 0.445347066456 -0.212409304594 -0.0881920899748 0.108745504581 -0.98754073606 -0.0903078304184 -0.00909270011607 0.0122667350298 0.0804429700351 -0.999815718742 0.525745376549 0.00161645578314 0.0673316720077 0.0967201071581 -0.809005604418 0.103315393821 -0.0238426923693 -0.293043966422 0.0499600289195 0.648204423405 0.0764809333154 -0.100791688586 0.361450415297 -0.0340654443757 -0.589102865077 0.304437847322 -0.0650334496983
0.291870604764 -0.0188933936095 -0.0856356459191 -0.411558612356 0.118037983958 -0.290036772932 -0.0481245613302 0.230854375885 -0.389814642293 -0.197041813249 0.101559228148 -0.280325216932 0.353647052769 -0.649653574436 0.173576037423 -0.114401579553 -0.182459602974 0.242646159956 -0.418009416208 0.23371845198 -0.148800928736 0.0683986922377 -0.0871529971447 0.17859958536 -0.3859324275 0.0323500989309 0.0404690635198 -0.125340878763 -0.318263033879 -0.0922665233989 0.0854157774558
0.581684931787 0.975174154426 -0.46585133223 0.575651289585 -0.481269248039 -0.725598805412 0.0455509375087 0.659521105982 0.959622372216 -0.0630100365885 -0.221007585274 -0.612313899114 0.800703237919 0.245846451391 -0.525625944713 -0.0892839626611 -0.361166376121 0.951186573681 0.694507256309 1.2769335835 -0.312811912835 0.996755581367 0.322477420411 -0.547317471234 -1.17560512934 0.257538524422 -0.207018916436 0.0202469866784 0.896013995613 -0.358651141945 -0.0768762284957
-0.332163883708 -0.993663483345 -0.102707370203 -0.63480971465 0.958592313905 -0.0067591987255 -0.0846123082934 -0.214035004775 -1.67029593383 -0.0676151065939 0.230184550227 0.26432143375 0.0699857843605 -1.75554863152 1.07107687593 -0.174011222458 0.0965949231294 0.232337630454 -1.51087115985 -0.491007865508 -0.214126677237 -0.0618840128436 0.052428659307 0.824443622825 0.0448648094934 -0.409541233395 0.83693127588 -0.0182803711315 -0.686890760645 0.796074022591 -0.0433300416604
0.522732261491 -0.0172879104081 -0.336409900123 -0.439636346671 0.175163862387 -0.571726160136 -0.0538934174822 0.396227835765 0.262102297277 -0.0806627981754 -0.0371768907298 -0.162353558724 0.25217528656 -0.466574054699 0.576106488512 -0.0232528665242 -0.236179388962 0.334827733427 -0.0567734018847 0.546549213822 -0.595213829364 0.270750483829 -0.264492511459 0.0286889302579 -0.765367024039 0.0592735030671 -0.24951043189 -0.012347936265 -0.167757597146 -0.29744975573 0.0596931358409
1.79422297989 1.53424872748 -0.85662542098 0.581304257596 -1.06372853625 -1.07670642528 0.14155027579 1.36612307773 2.87118670545 -0.194217655192 -0.776790134244 -0.847421130604 0.88364293753 1.47277664724 -0.5467269579 0.0694045006777 -0.778597308438 1.34500853356 2.11790788783 2.46433305603 -0.762658808884 1.37080435753 0.0454133621681 -1.17793897125 -2.07958424664 0.442192516586 -1.20153065375 0.0821060957489 1.10228850335 -1.16659663665 0.0667775822539
0.594835072329 0.280771171787 -0.311779842258 -0.483627234796 -1.27284383821 -0.550474197534 -0.0411190983781 -0.369207694092 0.671014353173 -0.00332102244828 -0.0889573145923 -0.619230592732 0.512492787664 1.14384781111 -0.566109173744 -0.0833347736108 -0.118284509362 0.122653729162 0.72206259254 0.079680614748 0.0090600407683 0.213252257716 -1.02073375245 0.571356922972 0.0606064868718 0.43277166257 -1.26565864656 -0.035182828803 -0.613754739274 -0.473551088418 -0.0580465105528
-0.0167121336995 -0.0694227730532 -0.44082124736 -0.353190702135 -0.461913184764 0.163718304577 -0.13393450932 -0.505539765231 -0.306392997541 -0.0341758417231 0.0481605499718 0.460922658142 0.298308030938 0.129913536835 0.602695618667 -0.0992045205963 -0.125572791006 -0.0283622952476 -0.124877276446 -0.678426321093 -0.208806739171 0.0864319729447 -0.161680691438 -0.1624034576 -0.53891805556 -0.396285076354 0.273561036936 -0.0181682437326 -0.232954996983 0.187960809047 -0.0393659493146
-0.574260074004 -0.205406459766 -0.780161365385 0.107327353581 1.09653747216 1.78094713717 -0.040023651055 -0.638997179492 -1.06796384291 0.0946649791266 0.0810251109261 2.05794435172 -0.0741595540434 -0.763893987409 2.4610067233 0.0293769331387 -0.334693854145 -0.116504574919 -0.561441304933 -1.25933310923 -0.240625103697 0.0871023464419 1.8036022258 -1.18571613036 -0.990398253735 -1.13435107325 2.45878533388 -0.21675989744 0.123013290987 1.15793592858 -0.0882147638481
0.162543854153 0.148310135933 -0.438121772117 0.00177406588668 -0.875047491203 -0.242159533163 -0.131413191302 -0.366340560139 0.529809327792 -0.093682578306 0.15880880896 -0.185598821016 0.346460701289 0.664003013204 -0.75079565056 -0.109801199772 -0.153718856 -0.00687783180241 0.244131411705 0.159092108399 -0.163804637766 -0.0159030594383 -0.279317010373 0.052884314017 -0.474542051989 -0.0177969098551 -0.759137127987 0.0151137262357 -0.247953895437 -0.270680656394 0.0375967376442
-0.223014132249 -0.167017528965 -0.177838330929 -0.138723804138 -0.570570454108 -0.0790943360157 -0.157654419305 -0.333685666367 0.0621893990262 -0.0561967848382 0.0822679844122 0.00669745482773 0.0829091887986 0.264852072093 -0.308629508759 -0.0761350262977 -0.164226091853 0.00801712241517 -0.0388428773302 -0.137999239963 -0.110045586464 -0.304910348347 0.0685175857944 -0.245596361413 -0.567117126053 -0.230598303795 -0.155140556338 -0.101909968987 -0.183615442771 0.10919251029 0.0432355015612
-0.612234182943 0.0529594871842 -0.351815317048 -0.0838119249748 0.213123166217 0.676546903175 -0.0565392896757 -0.534039635971 -0.47131160014 0.0500056021084 0.144530791718 0.702246338499 0.0523147577082 -0.316131543453 0.399029466715 -0.0919615650695 -0.0820935649773 0.212941875037 0.0150487383654 -0.863161744644 0.000861915706873 -0.0388143499009 0.895915143612 -0.575551418169 -0.761034291468 -0.254550545348 0.929658112545 -0.147809329995 0.094884349262 0.540824826456 0.0445696626115
-0.0794466924344 -0.2320627054 -0.338690154737 -0.224248625436 -0.282871882313 -0.0742953398539 0.0248193258554 -0.0671387958047 0.148361787323 -0.086257903178 -0.0548789356638 -0.0981568802774 0.0664824695201 0.0417299612842 -0.564328011112 -0.052413907682 -0.202892776095 -0.259095714186 -0.200370670178 0.390953322881 -0.200220140863 -0.279651871966 -0.254224817446 -0.01061155723 -0.288202718473 0.108550127042 -0.409092809917 -0.0610300651291 -0.0735671786879 -0.076731279975 0.0252495391662
-0.373443053615 -0.24778008952 -0.300770462533 -0.29280013914 0.0190374478875 0.0243371952153 -0.0991125402691 -0.255441567692 0.175963378341 0.0314293903681 0.245575984293 0.0303562642158 -0.22485480156 -0.102509721749 -0.363348973976 -0.0465503173488 -0.264127084449 -0.211771135826 -0.455005411488 -0.107616244631 -0.237511878688 -0.529145360326 -0.0729749761473 -0.0768829581505 -0.609535719542 -0.279139387034 -0.00990993670002 -0.110606527628 -0.0699136607272 0.00895874729293 -0.0408047254317
-0.619206288289 0.0497303302561 -0.451595805463 0.107704442326 0.318637076526 0.112564737535 -0.077759203637 -0.199799615586 -0.0443959700517 -0.109022550332 0.195766532034 0.0974655625438 -0.152118333774 -0.455128298213 -0.437856028733 -0.0473946441536 -0.164851086805 0.213203813599 -0.304186618447 -0.193833152959 -0.129056674727 0.192975375951 0.360262247328 -0.600031168496 -0.782120999401 -0.292224186444 0.346645172311 -0.0858884582885 0.353658977161 0.115704768502 0.0881124927755
0.035271501655 -0.105751535606 -0.378759033922 -0.0941673465438 -0.283120335116 -0.0790737800197 -0.109551074443 0.0181455682656 0.205862373811 -0.0513952545443 -0.127802798884 0.0393280612199 0.109929559067 -0.0667943248233 -0.660248382009 -0.0665832649068 -0.188507873891 -0.00505107356604 -0.451446173579 0.398932592662 -0.187748677081 -0.263338451141 -0.0212368272717 0.218031913952 0.198662751579 -0.0361056465517 -0.190229978583 -0.125008803913 -0.267144239849 -0.315298421844 -0.0365985672271
-0.23781526775 0.0118011689312 -0.251206483575 -0.098631044966 -0.0671587737875 -0.176992465722 -0.0388052599775 -0.260694168766 -0.00643603943913 -0.0321981691815 -0.0102305379128 -0.203569484402 0.135323312799 -0.0334232351637 -0.635599647352 -0.0261174763852 -0.189016824971 0.0141741533931 -0.383621686067 -0.369407354619 -0.150068315278 -0.194437735007 -0.0525899716225 -0.196775023519 -0.123242684393 -0.299979358883 -0.0353254241674 -0.0706524537013 -0.0866239153771 -0.316331563723 -0.0521726285306
-0.54886235767 0.174694541174 -0.412292114765 0.111480728941 0.129580440689 -0.485123678164 -0.166347960019 -0.136459568704 -0.0132053048983 -0.17600384522 -0.0603309203467 -0.435567169131 0.18233139277 -0.106541143249 -0.947697922191 0.0264671630031 -0.231735294801 0.351414806852 -0.203463928589 -0.431710555781 -0.0873177404985 0.211559084854 0.173556615528 -0.491359247151 -0.471680833521 -0.141401676553 -0.203485592172 -0.0945893891626 0.297631544036 -0.304866571969 0.0842630316644
0.218443695423 -0.124451944554 -0.464486026051 -0.197870605851 -0.220567125043 0.108082529417 -0.0458790407459 0.294241979166 -0.243670362841 -0.170126747445 -0.136516724138 0.128827535398 -0.157431314308 -0.174769682392 -0.571143102734 0.0281423811153 -0.150046310694 -0.304970343144 -0.274850138952 0.442717167544 -0.133620938009 -0.0220778696677 0.0773518354033 0.51179022656 0.319906425192 -0.135649225302 -0.149334692123 -0.127662949854 -0.4339754694 -0.362824500301 0.0310682941005
-0.00927978357791 0.0322653951874 -0.317676472725 -0.0792419512331 -0.137977840436 -0.0787993724943 -0.171072035081 0.234037498736 -0.215332688419 -0.199611562588 0.0530997924415 -0.253043857831 0.0976576930999 -0.171513462409 -0.522453166304 -0.126936901914 -0.344934535558 -0.239246715905 -0.248213643077 -0.220626393038 -0.270152748842 -0.141764769786 0.168254386698 0.185470759884 0.012498477984 -0.41412725126 0.101772742538 0.00391269527699 -0.343206822201 -0.364692452037 -0.0699824561801
-0.327628118104 0.136884826871 -0.518338442693 -0.0395097352764 -0.0150289995161 -0.283929986766 -0.0337538754862 0.106265422015 -0.265280768467 -0.160773785049 0.0551915553424 -0.233505170836 -0.0164181648118 -0.172476191949 -0.544018294435 -0.0154969410977 -0.295776814768 0.154547327417 -0.0426685768605 -0.0303101122667 -0.195482327005 0.164368140805 0.24191131752 -0.227604401802 -0.365276033664 -0.169980683711 0.158202942677 -0.166894434749 0.0040943290915 -0.439320850496 -0.0772007775584
-0.0264629443901 -0.263042310508 -0.277014344854 -0.323007269245 0.111829743182 0.0140599951471 -0.0508422432522 0.162568900156 -0.347210317895 0.017001705472 -0.0112108814499 -0.215077182886 0.0609465695638 -0.128534527171 -0.01722559346 -0.126118331812 -0.107377154002 -0.0876941528765 -0.189694916707 -0.464492303933 -0.0219252417122 -0.23368291806 -0.178867229793 0.356555415182 0.125616347174 -0.140673264299 0.0334351070224 0.0192650288201 -0.395299316134 -0.264807946567 0.0180175327748
-0.269761041166 -0.0330167784365 -0.324762040124 -0.0531874860786 0.1659678839 -0.139677574027 0.00416460589309 0.0810949853712 -0.231341330843 -0.0468931360965 0.186566281568 -0.296997279166 0.131244397419 -0.158917704374 -0.155819321664 -0.153215850221 -0.149097208401 -0.101501935027 -0.0573709909069 -0.575122958 -0.075304204184 -0.0657859315062 -0.13575203173 0.154641463366 -0.111031930555 -0.378257753073 -0.108318159472 -0.0885833228912 0.00353317693947 -0.351334748027 0.00342375019573
-0.218897870379 0.277897921484 -0.4222787832 0.203678859039 -0.150959288718 -0.444021164081 -0.113232405594 0.251940032346 0.166816223529 -0.134067990893 0.0170021701133 -0.478148519729 -0.0797194294689 0.0284442542354 -0.618761979471 -0.019775167682 -0.231522600701 0.277230360386 0.429079226827 -0.074881927234 -0.0467465355801 0.161468352215 -0.103158876477 -0.188878546443 -0.348574943799 -0.0257021657714 -0.00322252887206 -0.0421279788784 0.297607393837 -0.287501442062 -0.0237657757544
-0.354824913153 -0.405469436671 -0.244835437089 -0.327954985931 0.459356375322 -0.0220118956653 -0.127767308333 0.0838139291914 -0.960674347854 -0.0828239557796 0.133467417051 0.0159203923738 -0.164678543969 -1.05054930245 0.246216732422 0.019521445642 -0.0502176990953 -0.00685062558392 -0.492203567617 -0.343937381781 -0.0428190800185 -0.144761311692 0.0641784687049 0.516177030328 0.473543860033 -0.122954544106 0.435835354215 -0.0514566930947 -0.280311035347 0.0674823671338 0.0981329518473
-0.041104396385 -0.0063630174254 -0.220515304968 -0.202890304315 0.226589957341 -0.0971081397474 -0.108809216072 0.190498964524 -0.38936241252 -0.178016044772 0.237370426691 -0.236861651543 -0.129298744843 -0.668607657285 0.0582323518741 -0.0787838777248 -0.142625119738 0.0290902234018 -0.0149370976587 0.00772894141871 -0.116476992681 -0.0975995537837 -0.0586655904811 0.307589516535 -0.0465693704546 0.016533788136 0.00327834727499 -0.0185279174261 -0.0461565162544 -0.14133448375 -0.0369969620201
0.495124047528 0.607579159792 -0.595406876998 0.238209659362 -0.237468543115 -0.545048832467 -0.0622487988712 0.636740992134 0.867125569467 -0.0165218587826 -0.0652834830764 -0.464270841183 -0.0268540321868 0.138465211532 -0.564063001452 0.0451532339783 -0.277218539591 0.3532508146 0.849215570006 1.07813863431 -0.1561005571 0.329524693242 0.164587011973 -0.191257703461 -0.456774116672 0.373929832659 -0.147132252023 0.104400015692 0.339335053772 -0.328284151593 0.0583888339715
-0.665337446353 -0.634286439086 -0.390143317979 0.182385856593 0.857845587962 -0.0523713154702 -0.211391490874 -0.325995283621 -1.66115013433 -0.000372559480583 0.379388754032 0.241041327489 0.270155380212 -1.78717440883 1.12749691944 -0.0864578338244 -0.275107604935 0.38137038408 -1.15788306325 -0.74289148839 -0.27053449875 0.269247786522 0.420481642768 0.298859384092 0.250437884994 -0.772095769022 0.550949080494 -0.0791704356243 -0.0397946472551 0.481077610149 0.0678436500225
0.326284028563 0.127282308654 -0.648160317483 0.0225155991454 0.0301274583305 -0.583147490579 0.0189760823694 0.317583259581 0.19784709784 -0.195463982866 0.11866654465 -0.349241462313 0.214240841487 -0.429340511691 0.490740773201 -0.12596292413 -0.498436821103 0.186921982113 0.139016820639 0.398548578263 -0.464175286081 0.252083151496 0.0776629534329 0.114460949923 -0.515759014738 -0.0880566718761 -0.431991749652 -0.0655129853391 -0.0565327448078 -0.335776119863 0.0157150156313
1.69705882438 1.0512416253 -0.852016160707 0.181571668125 -0.976690064156 -1.04869851782 0.0721236808437 1.36837533845 2.78409362084 -0.226056450209 -0.629070855031 -0.734501703106 0.285997316893 1.49504532315 -0.442331628132 0.0213828102523 -0.708728000185 0.608869006128 2.03603796604 2.53075745296 -0.562065198694 0.632596774461 0.108130900253 -0.646297503866 -1.18807566488 0.744138130719 -1.31110026749 0.103674140004 0.407967544496 -1.02157574751 0.0941074978323
0.352333726816 0.330334063363 -0.542731236493 -0.0572110123434 -1.29644514975 -0.65710117986 0.010615063804 -0.237413525643 0.452437052095 -0.0984006267775 -0.0835929376978 -0.463228801715 0.0957941906101 1.12170118405 -0.425227402387 -0.127159360653 -0.475677808201 0.070296500555 0.562100970883 0.0396909388874 -0.0263383981078 0.279701733914 -0.901785898678 0.53091122282 0.145508976749 0.282242512328 -1.41885520986 -0.0169520195295 -0.224570524103 -0.588284937422 -0.0357715403245
0.00582090340104 -0.106986749549 -0.720979456922 0.0343079505652 -0.463030353994 0.154392331129 -0.209578033659 -0.552009510212 -0.593765909176 -0.0195499073831 0.0792771549399 0.676018034497 -0.281550445455 -0.0174730871827 1.08544120017 -0.081106907866 -0.557298887883 -0.254890997162 -0.128733809383 -0.764813014563 -0.245414583368 0.021797877082 0.122040441948 0.029676537545 -0.360013095786 -0.483533195751 0.0725103334784 -0.0896329965921 -0.162404627163 -0.00871341660086 -0.0756631444174
-0.597591799289 -0.538440465765 -1.12067119902 -0.221198949317 0.970565329075 1.95904112624 -0.0658278599686 -0.726689506132 -1.46746002092 0.0725064388514 0.114988411329 2.16514943613 -0.82126710044 -1.15143865771 2.90103117164 -0.0920658138096 -0.746457786223 -0.237118831978 -0.681070281692 -1.38432639639 -0.351448794289 -0.191691235993 1.81502115878 -0.769844526252 -0.761617619586 -1.05894928864 2.34855225628 -0.232304805806 -0.0583362613941 1.06101065458 0.0370462673035
0.33214175548 0.0662377491347 -0.500110669002 -0.149028921367 -0.979573926917 -0.217742294543 -0.0339473394764 -0.427891073016 0.601893203472 -0.0822918770163 -0.0785116302347 -0.304971371686 -0.0231667817041 0.672101758622 -0.504549576271 -0.0783533273424 -0.24679739741 0.0286901065088 0.270079585004 -0.112315387458 -0.0557786485937 -0.130661404471 -0.319961680009 0.215485509394 0.0892808398407 0.164831221442 -0.851021690593 -0.180577479777 -0.119337152602 -0.0204095249688 0.0971670257118
-0.0660555615857 -0.193585984501 -0.439223645184 -0.16815903084 -0.550869700915 -0.164053319791 -0.0811936568438 -0.444657690894 0.101556781395 0.0115509539524 0.0996924198631 0.0705908589097 -0.385687728576 0.260564829981 -0.119960459623 -0.178778095495 -0.25745559258 -0.158042050031 0.0756383409758 -0.368294042141 -0.113291984951 -0.389204971615 -0.037931024793 -0.0831785148631 -0.274182783417 -0.108690641802 -0.35287251867 -0.0275029043181 -0.372157069333 -0.0580979939403 0.0650639693278
-0.410316094571 -0.178808443512 -0.589159667627 -0.294426391086 0.0947371801134 0.651596002056 -0.126913150198 -0.490764303295 -0.431442123724 0.0022353168875 -0.00443426186766 0.717667203497 -0.580510938058 -0.362328945517 0.43749977242 -0.158054353991 -0.373117378661 -0.132721011844 -0.104510794981 -0.972004397694 0.16986995084 -0.214985565779 0.739485763857 -0.106417619596 -0.279348122174 0.0368195654972 0.619177450635 -0.149454226914 -0.330084488451 0.310866269875 0.0925557603907
-0.343502215195 -0.147046627411 -0.591464806375 -0.00274386503344 -0.192228300729 -0.0320573280266 -0.00891278606099 -0.291779997952 0.138118798262 -0.00580470645735 -0.128086888779 -0.184222714342 0.0577334922855 0.428604147038 -0.535280208248 -0.0666741236153 -0.258484696016 0.174811787458 -0.202197335671 0.305020188759 -0.0358493494065 -0.0429977510086 -0.15811238768 0.0572993170679 0.172634774351 -0.293444357612 -0.393266740625 -0.171868688959 -0.363430478994 0.153411679167 -0.0553310571858
-0.608483819163 -0.305477982679 -0.648348698624 -0.0176812231608 0.165859281391 -0.027674513025 -0.102437031484 -0.36176735416 -0.0018550624753 0.0611907313433 0.0811395939252 -0.200640135013 -0.0377171883853 0.183378607337 -0.473130464355 -0.154697507414 -0.441094434591 -0.00633968148742 -0.2914364247 -0.0874288491698 -0.186643367319 -0.107973232355 -0.0308317644441 -0.00745656858846 -0.0430726325014 -0.209382114268 -0.110292265898 -0.0985927383075 -0.194870498944 0.0266768932134 -0.0668787170473
-0.682178957216 0.0147205914307 -0.701171486603 -0.0623848306228 0.348425577399 0.117459883789 -0.137062483816 -0.306207734667 -0.0631081206439 0.0397176089163 0.0985427371464 0.0759253707845 -0.188942834098 -0.212580672768 -0.474584247812 -0.0046284270412 -0.432957817936 -0.027070503507 -0.160718854723 -0.369118925432 -0.033736542568 0.0587275422103 0.12459924366 -0.256371072421 -0.254878965848 -0.0703872161284 0.0769393910195 -0.109016975732 -0.200193635385 0.0388584924585 0.0527230584061
-0.37829309275 -0.314065021008 -0.613096958917 0.405441418602 -0.0201217399998 0.0342236060314 -0.147334340464 -0.207472661012 -0.079113133097 -0.041652979905 -0.166702578173 0.0387746604126 0.190972656381 0.14092667365 -0.437134975829 -0.136956890979 -0.434394953074 0.111532632505 -0.293895989036 0.227322444731 -0.1199719775 0.146370561556 0.0607899415806 -0.0359483163932 0.0753404057719 -0.2052637154 -0.106481903283 -0.0618585950042 -0.250353215158 0.095267753665 0.00368423511314
-0.681273937179 -0.383753179384 -0.544745865676 0.378874346044 0.0198255712322 -0.20470946997 -0.0851699849943 -0.386022613015 -0.216016544968 -0.168745821194 0.0441608886017 -0.085731421594 0.101143616505 0.00706473393895 -0.469915198173 0.000293574219239 -0.419331798214 -0.112028232196 -0.251407879121 -0.426958737539 -0.251118818093 -0.105738849268 -0.0752326344712 -0.130091588942 -0.34832636896 -0.491834932684 -0.0617748384355 -0.213879494331 -0.0251394269544 -0.120278236324 0.0790427457793
-0.88093060024 -0.00316682780119 -0.694573924099 0.255681857065 0.243487235241 -0.107071662173 -0.0571376614664 -0.276750868333 -0.371429856 -0.117460848804 0.254288890241 -0.255802488767 -0.146060191666 -0.0713925553957 -0.811183420824 -0.187718011457 -0.653341810176 0.0904879185812 -0.229246841292 -0.603540216735 -0.312640927958 0.0209377064493 0.152272901629 -0.242263110092 -0.414629134155 -0.592493831684 0.0442732433249 -0.140424215292 0.14985538922 -0.224345686834 -0.00519793611322
0.119937207002 -0.0536767543497 -0.479804338867 -0.0202380723177 0.0113413471938 0.0685011504912 -0.0332895968785 0.353339480952 -0.260746862996 -0.170358074622 -0.0670695862328 -0.0817662772923 -0.152780837421 -0.0274177601064 -0.664031084087 -0.0142628056851 -0.259190003784 -0.170844440537 -0.0930508068004 0.301209678478 -0.131058049353 0.0814130624483 0.13072870498 0.130497291673 0.210488527576 -0.143689651295 -0.352939171389 -0.0337063352338 -0.190460586228 -0.467793016992 -0.0840534584624
-0.0656147130205 -0.0176072324358 -0.694684705085 0.200142860458 0.000164555928039 -0.219422658802 -0.0610047057986 0.288203289961 -0.0689058829002 -0.112656132506 0.166695049218 -0.381793516882 -0.0673374299364 0.229185139042 -0.545940729281 -0.0682718012803 -0.449987212591 -0.239388397459 0.116763102799 -0.123717764987 -0.25426251956 -0.186011303507 0.0333958237595 -0.128565488956 -0.337078842046 -0.421761678229 -0.39667048839 -0.114222487627 -0.132081888154 -0.578880754728 -0.0668840487625
-0.161343395021 0.134488832716 -0.778605617189 -0.00926845539191 -0.174748714743 -0.469540453492 -0.00390363378413 0.124954972374 -0.0184880865264 -0.0723961879454 0.247395051855 -0.475756086113 -0.298191744166 0.315339122795 -0.825191749613 -0.162161010305 -0.56553538726 -0.241507765695 0.219672886956 -0.236025494961 -0.212937102632 -0.161934815958 -0.200736549638 -0.0661407170742 -0.478535241558 -0.461802406265 -0.464826644011 -0.0692027318217 -0.0778261299972 -0.656633670774 -0.0911704447118
-0.087491771905 -0.246763420638 -0.431104066187 -0.104285668929 0.331859670091 0.200595407784 -0.133978111022 0.44361882571 -0.303977723653 -0.11541420229 0.0114989020917 0.00182904706132 -0.160971020934 -0.137878923585 0.0927551166057 0.0225437752026 -0.210103808837 -0.308526750822 0.0153767079202 -0.101131021586 0.0215054713649 -0.234718626646 -0.289827274218 0.0985380319031 0.405399894589 -0.187282505639 0.129318431314 0.00073587103973 -0.17537420136 -0.234503898112 -0.0374936290061
0.110723094871 -0.158163221801 -0.521208511453 -0.0804637468946 0.227101730771 -0.0387549570768 0.00675407449927 0.234054536195 -0.0745869445321 -0.152535719084 -0.0436443314965 -0.143864833538 -0.22079032538 -0.0121143111273 -0.0687094289434 0.0183442603332 -0.267490814547 -0.330865305347 0.025843967273 -0.375759867592 -0.14429205415 -0.404224703587 -0.266376709966 0.0560806481677 -0.275968737135 -0.332106173386 -0.200540032613 -0.012998083413 -0.0488825391795 -0.437954174225 -0.0595353646401
-0.0193991163291 -0.123578486065 -0.510748456016 -0.226315429839 -0.097052502591 -0.243278642567 -0.0576092684886 0.214973170594 0.377084602968 -0.0478497247392 -0.0104141317556 -0.444238005411 -0.601531792775 0.156967726006 -0.499620635928 -0.143499155481 -0.19079784635 -0.296038316184 0.240586234425 -0.214818837994 0.0441680176175 -0.443006267814 -0.33160932536 0.221880225409 -0.206659553699 0.00852411246095 -0.20350368925 0.014920521931 -0.000564801425884 -0.168346818504 0.0304483527276
-0.361463570766 -0.42660117926 -0.528849483257 0.00328878536693 0.607578945842 0.121670080106 -0.183198339424 -0.147695887249 -0.910107347585 -0.0331576033034 0.181438956968 0.340246262673 -0.344735060692 -1.20055362076 0.545654651772 -0.0117316495398 -0.270906961476 -0.091863682958 -0.551365698761 -0.323623204869 -0.0345736276635 0.069685965911 0.313762598888 0.297746059695 0.386941099851 -0.446841053724 0.446265975124 -0.0934625558011 -0.0159589689081 0.197342333346 -0.0423406187537
-0.00581254947163 -0.111048131449 -0.575021633489 -0.0868856651032 0.288310878703 -0.0471921397954 -0.144189318517 0.113771720875 -0.386279230691 -0.113557196019 0.263114339078 -0.0137672746384 -0.377617657892 -0.766467059212 0.106306950539 -0.1325688283 -0.310693965189 -0.211199709986 -0.0218660478658 0.0806832103112 -0.155156795858 -0.194836263905 0.121178574774 0.34560473854 -0.0578011701415 -0.381846313432 -0.0876199050628 -0.124695239261 0.0930043747298 -0.233408536728 -0.0613260325411
0.456843243061 0.254234090469 -0.650498604743 0.106785117159 -0.209899224475 -0.461004060544 0.0995187750567 0.374297858201 0.783027603512 -0.0973834564353 0.123788433051 -0.130863060792 -0.432378336364 0.0929313748629 -0.292959829557 0.058130288877 -0.299264839539 -0.146542666037 0.741527868564 1.08327089004 0.100439000435 0.18345856329 0.243632287764 0.06794037057 -0.29694089051 0.0793851461967 -0.187007558758 -0.0784089114536 0.122874214274 -0.243107362601 -0.0244728523469
-0.450703509889 -0.353252700293 -0.442224909234 0.266788037043 0.526134863641 -0.292158479611 -0.125110140244 -0.358105611631 -1.31007797119 0.0181106705674 0.296953959203 -0.0245855487859 -0.349280695219 -1.71136722609 0.874920914343 -0.146714300805 -0.257970624937 -0.153489399233 -0.984860234173 -0.598418385141 -0.0330093049543 0.20769400872 0.312594682338 0.453503400479 0.659607088684 -0.54605420062 0.42438328806 -0.116513016654 0.0108951767008 0.404684429406 0.0727836049424
0.450678961034 0.0724258252656 -0.645169099526 0.0235271299285 -0.113146102426 -0.805475865685 -0.0602070039973 0.226837514628 0.161932565724 -0.071291555077 0.0840218500976 -0.621095253014 -0.320593319993 -0.40129455375 0.166011713176 0.027758937892 -0.45673837639 -0.249928346553 0.206996639503 0.475211536015 -0.156232919498 0.101059666997 -0.206207523496 0.377394859775 0.106583050768 -0.0324288396741 -0.520466670898 -0.02041839013 -0.0231804289636 -0.230745518062 -0.0482731195147
1.8643798875 0.827404045058 -0.954121740722 -0.321280838641 -0.973244220093 -1.25319789731 0.027333048673 1.2022737912 2.56358502021 -0.198636252243 -0.615425467677 -0.946668885194 -0.623881128074 1.13455741426 -0.630673407072 0.0527755173064 -0.701628633323 -0.192529420266 1.8551521959 2.64834096658 0.0417534177157 0.233861568308 -0.218134274573 -0.127839209366 -0.426514773063 0.980577903738 -1.08600274626 0.205498929474 0.0878929159881 -0.951361654871 -0.0123720081593
0.541160596711 0.266076825039 -0.317098570816 0.330933206797 -1.20302040219 -0.715636344005 -0.124657921129 -0.0520041374269 0.42687562922 -0.132185778986 0.0340314597932 -0.65696515808 -0.171547763858 0.948510407736 -0.590279129184 -0.0690207640179 -0.339496851406 0.0529267250822 0.349418114549 -0.0769439276946 -0.146125695568 0.501174256809 -0.7827419723 0.410503454709 0.281432964224 0.521974945765 -1.37993015143 0.011631844322 -0.160403502442 -0.783371694542 -0.0409658094704
-0.0722461210139 -0.188045158666 -0.510859805372 0.112935532878 -0.340371330955 0.19114253692 -0.137255909039 -0.578483485114 -0.624048730481 0.0263224686193 0.0398590550327 0.346576153349 -0.564296184165 -0.135728221349 0.60502661847 -0.0505301723104 -0.423595154646 -0.354683187549 -0.343187361644 -0.706006105988 -0.0930740605936 -0.132057605365 -0.0718954265921 0.223556792341 0.171124201137 -0.276847419443 0.191954143458 -0.175742885972 -0.0754747070067 0.168732006603 0.0589700276032
-0.579479295924 -0.654247455709 -0.830656907034 -0.3114086161 0.873775671157 1.65707868979 -0.156971170739 -0.697922696029 -1.58370296487 0.208320964176 -0.0685762317402 1.86243224185 -1.00665847597 -1.12341259187 2.58254751613 0.0122363293593 -0.510094496577 -0.51604276183 -0.850184652828 -1.33261519309 -0.107693286753 -0.303940880552 1.4010478874 -0.269332939049 0.150874337505 -0.669097040917 2.53164108413 -0.197926938368 -0.130289895888 1.43774356152 0.00742716595883
0.547229269806 0.148816689767 -0.452081293455 0.144212720744 -0.951597994579 -0.405962340018 -0.130120669452 -0.131249145033 0.614623943424 -0.0951464653699 -0.120308619608 -0.348408917113 -0.141223709456 0.508318383917 -0.60341950796 -0.137378655077 -0.335531460465 0.121891583839 0.11834413148 0.279703875078 -0.0280755037358 0.2133196802 -0.497483337721 -0.0567351910597 0.0770314484691 0.334570106376 -0.82181514143 -0.0532935849728 -0.0791247214721 -0.254120939559 -0.0210789773765
0.212037265617 -0.202862267608 -0.597175488406 -0.0862586425426 -0.577451818643 -0.211945486275 0.00447972702097 -0.376626094523 0.233817574074 0.0324620756716 0.0971239305358 0.0404336897297 -0.341758259933 0.126389009635 -0.0591715190352 -0.0101330917273 -0.363721537077 -0.393718743258 -0.115684146616 -0.0912810827769 -0.145999716637 -0.114386991715 -0.356991921841 -0.0690057525516 0.0293023392173 0.142992496869 -0.217344778869 -0.130135227834 -0.0524823995341 0.0167985839872 0.0872045419044
-0.270769232715 -0.125499381953 -0.577124574843 -0.278442479217 0.0338621009664 0.491786157323 -0.135605874827 -0.307784008198 -0.244503179919 0.0670177742645 0.0544247335819 0.728519819583 -0.74049969979 -0.590574818137 0.524526576731 -0.109159578637 -0.403548568114 -0.551088218804 -0.131654193692 -0.65440331173 0.101467087761 -0.234439247322 0.519373342375 -0.0275219060901 -0.00213358348293 0.116990992174 0.683706714053 -0.0368567460315 -0.143735449796 0.507550338228 -0.0796234324793
-0.109548004279 -0.284012246124 -0.709818326046 0.202219999993 -0.253298463746 0.162672979097 -0.1056112904 -0.173779204838 0.0562752692623 -0.0577219924282 -0.0172342396089 0.0471456930573 0.11097734493 0.15452617686 -0.19452002889 -0.0451687584813 -0.331312240356 0.142898368558 -0.212148210739 0.154843589723 -0.220096719694 0.25040855992 -0.210076640177 -0.153136836703 -0.0836259005191 -0.294526995619 -0.142708565386 -0.114123678662 -0.273241041928 -0.105500550764 0.00734277085725
-0.294524453745 -0.333328226454 -0.608679792148 -0.142691617097 -0.102410723481 0.0727724418205 -0.062651323469 -0.183517863209 -0.00619655861975 0.000148952374893 0.0923695416702 -0.0036580703699 -0.236589530556 -0.160305452634 -0.213445824892 -0.172748342247 -0.53115102702 -0.367391061738 -0.26283297573 -0.262145096271 -0.0787775227979 -0.233540980147 -0.119400644874 -0.255702802668 -0.345039217762 -0.131232236664 -0.0334077097369 -0.201413832573 -0.278092520839 -0.143527974848 -0.0428107501317
-0.597809328099 -0.0593916120484 -0.858723863518 -0.0778258251611 0.223852643752 0.321375188612 -0.148157831965 -0.158321196044 -0.215893807206 -0.0264982515909 0.208384545505 0.201794857077 -0.428266484021 -0.410439665429 -0.217565079431 -0.0437919451383 -0.600910909316 -0.372681999953 -0.152650519501 -0.733382522505 -0.130610443863 0.0403613295182 0.39283125806 -0.229989494743 -0.373764523735 -0.256568262957 0.269964995916 -0.0201576489347 0.0493233391895 0.00181917474936 -0.0745323773717
-0.468230468057 -0.362459842301 -0.607927709388 0.165894645246 -0.00941853078974 0.213247852994 0.0015833381981 -0.193680491127 -0.107353306714 -0.143572708918 -0.0331746802537 0.297470344361 -0.0599716786991 -0.121799702088 -0.304253030121 -0.101960969096 -0.095801416786 -0.0238681746019 -0.231344902637 0.206238531248 0.00476034710147 0.15616080585 -0.200717862601 -0.0840968985712 0.0846338889131 -0.0788530596478 -0.057647780195 -0.0397464296119 -0.267255441024 0.0255130561203 -0.0383736833555
-0.618353955514 -0.318736511645 -0.406970644659 -0.273843769369 0.190366453158 0.0165791930719 -0.0367773742233 -0.433223306284 -0.134669947807 -0.140685806314 0.0537737765429 0.0142945307232 -0.437582109671 -0.00901443706689 -0.396868099259 -0.039953889641 -0.260021313292 -0.357490393136 -0.357166297984 -0.204666411733 0.0427970934051 -0.287511256966 -0.245392095832 0.0891751576927 -0.270280186937 -0.199113468863 0.199660119911 -0.0483744281247 -0.33605435868 -0.0877499422891 -0.0807861347151
-0.802240171137 -0.349356522967 -0.736934395703 -0.377565357009 0.168158089559 0.10372654226 -0.176375406378 -0.37023865009 -0.417554376132 -0.0601325706483 0.261836200459 -0.02916388392 -0.580056611117 -0.193072754564 -0.430712071813 -0.00845769207025 -0.401567136375 -0.462416536144 -0.269110583636 -0.603118990686 -0.0706067594545 -0.347219661379 -0.180774671232 0.182197363946 -0.310276090954 -0.390291814004 0.259240376407 -0.157805715553 -0.266382837804 -0.0108949119163 0.0296272108328
-0.367384974123 -0.0295222666675 -0.368959029117 0.0611190631939 0.190804117648 0.0213487548908 -0.170662954733 0.204459671505 -0.123426060743 -0.0512646094847 -0.128163023792 -0.037830234071 -0.317997162592 0.0370493354988 -0.252527014808 0.0142946983812 -0.00822787745916 -0.404165471421 -0.148611324286 0.0521109272688 0.0925319443521 0.208820495279 -0.264483917294 -0.124021988138 0.500635128057 0.0575890998038 -0.0996682226589 -0.0161475733815 -0.321970785888 -0.215772235884 -0.0641879494562
-0.354544355098 -0.0990869913096 -0.238924149912 -0.19240614311 0.144193910008 -0.263202677509 -0.0609433310273 -0.0309668193511 -0.0586410242531 -0.0832241670838 -0.0956766917865 -0.558020720619 -0.302372747408 0.0949930213939 -0.388561878959 -0.0581714749078 -0.125271487238 -0.496566228022 -0.0383812027503 -0.188916626467 0.0617787661595 -0.181430095015 -0.560567589604 0.14175923139 0.130753789041 -0.131104809791 -0.168427854542 -0.063910120784 -0.16357869713 -0.38785254901 0.0505404738895
-0.65666249438 0.00586830053476 -0.377152429727 -0.498565131381 0.149207908615 -0.37748493912 -0.152458629826 -0.0995651973213 -0.17547915346 -0.119842376391 0.149989309982 -0.73317249415 -0.594657000079 0.266182142389 -0.788940563122 -0.0441138187778 -0.128030247587 -0.580295801632 -0.107281684173 -0.367034457766 0.263941363988 -0.386184810374 -0.616392886721 0.396232745567 0.134025204533 -0.124314204348 -0.316505879848 -0.165889739726 -0.267765980103 -0.386493982051 -0.0459672042731
-0.386175229296 -0.155766538121 -0.238118031856 -0.0856002870331 0.658920184969 0.206463124168 -0.100186567209 0.363216374038 -0.338514452761 -0.0523289114443 -0.051793773837 0.0604644533737 -0.166099784667 -0.0862347733598 0.0850249880649 -0.0548098619821 -0.0462839307128 -0.0076329303812 -0.27805171925 -0.375382751188 0.185429654 0.0442616016439 -0.314162461649 -0.462659664549 0.447146294509 0.22378236504 0.0623101405877 -0.125266318952 0.0310525248975 -0.286631343119 0.045825406812
-0.19475265131 -0.0517306234354 -0.265715369808 0.0242281500226 0.351136394521 -0.235606886216 -0.0883049740174 0.256187406632 -0.0658205663801 -0.117980312137 0.040529517626 -0.310888163221 -0.251674486942 0.199072021306 -0.203823787837 -0.0132020530712 -0.0151399062066 -0.216005578901 -0.117449296708 -0.257981764044 0.156472262682 -0.0904803500853 -0.500158762551 -0.423370163962 -0.00273887645522 0.136525809499 -0.305707238508 -0.0493114998375 0.260055180258 -0.448492547528 0.0918165737899
-0.122632215407 -0.000599389491985 -0.516178461292 -0.140967021528 0.21278653375 -0.275911024936 0.0578889376402 0.469472994898 0.155987203093 -0.0877539107424 0.0775985953751 -0.585116172484 -0.304920638628 0.420539725501 -0.369801696149 -0.00665614033036 -0.223021228975 -0.248050287432 0.104972154821 -0.107349207351 0.292687410126 -0.168872564126 -0.384403468642 -0.147106712438 0.0898388884732 0.18626363946 -0.35212892804 -0.111933015933 0.211859173361 -0.1017113563 0.0184694330086
-0.366717029448 -0.187615830647 -0.4820857438 0.16558225677 0.688165456381 -0.103990320705 -0.161739304467 0.0492589258261 -0.902462498242 -0.0933155444176 0.153924218026 0.11178212684 -0.212695009039 -0.854737409174 0.284912002293 -0.131646561881 -0.104829575044 0.207628983578 -0.570980437917 -0.308707496926 0.102091516815 0.220365950377 -0.151521823401 -0.474728877503 0.410520771272 -0.155724173512 0.407560906582 0.0246967854321 0.218203716725 -0.0228436005273 0.0231081226135
0.179397833944 -0.131610377456 -0.311900408811 -0.0217602736335 0.287870278159 -0.443187098215 -0.0656004107999 0.0809007702715 -0.511016033027 -0.0789355732752 0.196842784629 -0.184941794959 -0.371906644779 -0.474141506242 -0.0640930890851 -0.0842296609793 -0.325835306752 -0.0757976269107 -0.179460485702 0.193735904471 0.0459470582212 -0.00223314504619 -0.181852410627 -0.202844867262 -0.0750452846965 0.0393655215114 0.0688973524731 0.0513108520802 0.262131679626 -0.229108964212 -0.0625724364891
0.460454900257 0.192334248741 -0.537806956914 -0.145217063046 -0.210555230855 -0.658796469393 0.0506879803795 0.568176347577 0.610036788744 -0.0519102568068 0.0681206304514 -0.476091291555 -0.475485197661 0.110747810825 -0.47674765734 0.0245520138697 -0.376851163425 -0.00130126048713 0.42701742021 1.08291064482 0.106075329161 0.0816259837368 -0.152796390212 -0.0946619713932 -0.162603834334 0.276195514584 -0.286965018108 0.0257621021723 0.253546249406 -0.376070470408 0.0740535637633
-0.364341780126 -0.307453337777 -0.345716483014 0.336001886871 0.649690531792 -0.226505254075 -0.113577502812 -0.424259992674 -1.18427068494 -0.126178809363 0.452842937282 0.0197722935312 -0.416081090101 -1.77733439178 0.886546699492 -0.136540409753 -0.273320970523 -0.114789801761 -1.13367846454 -0.465615680926 0.0663681860832 0.489449018666 0.206895443051 -0.170364622926 0.621936857659 -0.348251242082 0.813253720903 -0.0317017139008 -0.0625911439488 0.374790789799 0.0895574705039
0.731879148455 0.000266642404133 -0.472736066862 -0.224931115604 -0.222267905942 -0.839029364656 0.0242167194267 0.140205194495 0.285848608319 -0.0599437447898 0.0395966096738 -0.518215431506 -0.518134962829 -0.509451086512 0.268948769056 -0.0919233513776 -0.288137715091 -0.451799931368 -0.0104466676495 1.00867573355 0.0535483838027 0.0622084423257 -0.344128918966 -0.115394849916 0.0315331522502 0.356922427623 -0.0935062423981 0.0310544079646 -0.217518789211 -0.227036293098 0.0664226852975
1.98410793398 0.604083441856 -0.775094165393 -0.781682287313 -1.20492126392 -1.0732222537 0.143918326591 1.23455020347 2.71539730657 -0.120178245224 -0.617588813719 -0.931501432181 -0.983515241946 0.992583085303 -0.543787090912 -0.0136632226019 -0.548187499247 -0.69733056938 1.54834123655 2.83915446199 0.149253578322 -0.14186665781 -0.652102167361 -0.126689483541 -0.354886878123 1.307907726 -0.83961223733 0.206408284972 -0.417827195207 -0.680140548904 0.0860746680204
0.662337432749 0.415356601538 0.304964380374 0.36870399799 -1.34125207464 -0.835528023663 -0.0163720862918 -0.262832873865 0.743615399725 -0.124979875544 -0.111283593895 -0.661628252025 -0.0718362131372 1.01823603085 -0.977044161933 -0.0795108880871 0.0158989542661 -0.409620725889 0.56952398322 0.224759934886 0.0503708129231 0.258481719443 -0.92028215095 0.0762622524665 0.190686552354 0.560251590562 -1.3876697744 -0.0157178752091 -0.112175948857 -0.775604788782 0.0872965667915
0.248714091724 -0.0891151940427 0.010541799054 0.0503694654868 -0.365030796783 0.0651095817991 -0.0759731354902 -0.433877767714 -0.211088778852 0.101438826826 0.0113218972972 0.281728247682 -0.557741027486 -0.0162687467844 0.425863103471 -0.0591569998227 -0.0884166373676 -0.886224114239 -0.325286029063 -0.514535213898 0.0732046147063 -0.317801927864 -0.183822889464 -0.0170678161943 0.406503525969 -0.0822826001265 0.380916873791 -0.157173980487 -0.105064418373 0.324067662705 -0.0934547440202
-0.368096266159 -0.943602167379 -0.263412548615 -0.497253484059 1.12813576107 1.7879652761 -0.0427365965251 -0.757675581728 -1.38383490448 0.154209283148 -0.090955869042 1.89566792521 -1.15294833073 -1.15003524535 2.42857064289 -0.0664678373076 -0.169356354317 -1.22162385299 -1.01566904628 -1.27648794236 0.16321684125 -0.902662495922 1.18828455231 0.0357814799395 0.565765658903 -0.2692071785 2.81940753451 -0.1810838707 -0.350989897544 1.98309795716 0.0244392270101
0.306867831207 0.168112442329 -0.110733724802 0.583005724132 -1.03923209166 -0.403306733652 -0.00975366013127 -0.301529698389 0.541620139576 -0.132892338128 0.140861710319 -0.276360500266 0.233631488398 0.602906687756 -0.581758797323 -0.0287409033085 -0.209602654274 0.01562930043 0.224731359648 0.00638777347565 -0.12729465067 0.480725450095 -0.515428427325 -0.216504264286 -0.333670623004 0.0103987139243 -0.916857433326 -0.0130586546533 0.257621740196 -0.474462049056 -0.0491055567577
0.112548357854 -0.0217873559224 -0.030358040998 0.227717116299 -0.686049004935 -0.243432592995 -0.0165725663571 -0.333586517737 0.0600361574657 -0.0467310468849 0.177546343042 -0.0166641715219 0.0480680960186 0.19881194521 -0.133189765903 -0.0110887927088 -0.00936764954478 -0.239898174893 -0.0490590074947 -0.292831301811 -0.0187179817189 0.0240284661061 -0.234489119776 0.0130279376633 -0.242175426238 -0.167489643317 -0.261088164957 -0.104283769276 0.194123601939 -0.0414933075375 0.0497074201546
-0.242774567411 -0.225978537482 -0.168432741996 -0.25979861791 0.0799585051077 0.559102436496 -0.104223497332 -0.392997714857 -0.350174948001 0.0688318379519 -0.123191359184 0.691887150319 -0.539533504957 -0.520042826904 0.637034497652 -0.0243844572738 -0.0641746215937 -0.389560562511 -0.310278486363 -0.853403842469 0.119570521453 -0.120372522428 0.482670940124 0.457518167024 0.263706365349 0.238399384122 1.1116405319 -0.122420747906 0.0479913286443 0.85767412651 -0.00274233361484
-0.144118521272 -0.185030302033 -0.192795474898 0.257641512238 -0.38142744743 0.00370646219888 -0.106428991897 -0.28403251627 -0.0142862308842 0.00397858565094 -0.0351232363483 -0.164874060138 0.0460340148182 0.117320682527 -0.151207991959 -0.0870124123723 -0.116582864535 0.00219351676534 -0.165843946995 0.161922630856 0.0233797249493 0.301874697376 -0.158784148395 -0.27401077138 -0.300011176043 -0.507075890721 -0.241126142094 -0.0567756917137 0.0821220305285 -0.237538638807 0.0649873094205
-0.266873619551 -0.136374789887 -0.074313316409 -0.111156757682 -0.386464508219 -0.280463745207 -0.0637912692549 -0.352965634612 -0.16414782914 -0.108425991444 0.0185986787509 -0.25418566936 -0.142090949764 -0.0545840694826 -0.346136877034 -0.0516590888469 -0.0953690093086 -0.447519249716 -0.127234739891 -0.297698087224 0.0961262728407 -0.0776383809647 -0.219604453057 0.164829396267 -0.0772472440649 -0.0495251615203 -0.0249027652309 -0.155903277338 -0.0835738151131 0.080129650341 0.00724698309778
-0.651309093773 -0.149179219325 -0.310997969619 -0.443731665848 -0.111113555031 0.102232817535 -0.0967997417523 -0.28793147279 -0.275580961206 0.031048598441 -0.0165180019712 0.0848434658997 -0.371423799685 -0.360849615584 -0.135468730546 -0.0334967128358 -0.318118064666 -0.602628034293 -0.261899334946 -0.634312125716 0.103672410833 0.0166583456028 0.234361511228 0.380030052685 0.237373028182 0.212624846495 0.431101346137 -0.0946030696847 0.00870150165417 0.394453850061 0.0898281845106
-0.517500539724 -0.275749479884 -0.226621253242 0.313304948865 -0.312944425524 0.248503209719 -0.109397350937 0.0552087205078 0.0233170226817 -0.110798163538 -0.0698831784582 0.285864059415 -0.227775680472 -0.303351244656 -0.157600240474 -0.0771881438437 -0.0377635513382 -0.204610625464 0.0789899485184 0.0631039028881 -0.0167345294282 0.400777738992 -0.104587736515 -0.487986890638 -0.434603038465 -0.219943437467 -0.300828606413 -0.130299021899 -0.154711051071 -0.0182321956742 0.0399554554763
-0.459319731682 -0.222306144087 -0.132164685074 -0.0593757135606 -0.210208739136 -0.131143897824 -0.14381379995 -0.123880037669 0.192165902688 -0.146588014462 0.0641517896605 -0.0995886973455 -0.291456297178 -0.25787464016 -0.367972119982 -0.119039053866 -0.0551217984292 -0.643297108943 -0.0821055241461 -0.203636369728 -0.0233110722022 -0.0722056842544 -0.0593560226826 -0.0784997692612 -0.290021548528 -0.204694193542 -0.122149866511 -0.120181218103 -0.314511796248 0.0666734335943 0.0709144775461
-0.532566920479 -0.187454711076 -0.302401328598 -0.351934872563 -0.373468916304 -0.059321933318 -0.154467948349 -0.115370152813 -0.0917961607771 -0.00754284101225 0.0290231165089 -0.0818850808067 -0.439397118944 -0.237424290352 -0.366748635727 -0.122768723919 -0.186151282107 -0.625077336081 0.0494471855082 -0.482835861954 0.122010492931 -0.143792124065 -0.144044928519 0.271830482549 0.0485243461878 0.184485179463 -0.201564458628 -0.0467406076366 -0.228736002287 0.234711018158 -0.0565176260819
-0.369975465027 -0.185799002693 -0.218989646575 0.369457222103 0.0593804116073 0.177848537616 -0.00335514224172 0.130647228042 -0.301900347896 -0.0727925316396 -0.140686031721 0.106842202015 -0.155461439732 -0.138539000781 0.0230252841211 0.046267405979 0.1299468192 -0.207449660354 -0.101449063418 -0.205611691781 0.0251224645724 0.275448466115 -0.240322901815 -0.437445297384 -0.232940723609 -0.169594840463 -0.173622455592 -0.121857822266 -0.0714126155341 0.0491686427253 0.0785103550651
-0.5221144665 -0.113241196432 0.0389160716579 0.0904839318612 0.170382277214 -0.120102644251 -0.142989044546 -0.0105708134046 -0.292838562169 -0.155585434242 0.0322672987845 -0.303061054149 -0.174186525896 -0.150959628861 -0.164233961407 -0.140113633136 0.11299468982 -0.481416444921 0.014750317486 -0.399622651964 0.0366269107437 -0.104982873621 -0.417152339122 0.0155035290298 -0.0982005586847 -0.0831612934408 -0.281225442533 -0.115758916066 -0.00718974023204 -0.0932557289247 -0.0651775047976
-0.747862980157 -0.219938710933 -0.14465668012 -0.303656109705 -0.0751082708025 -0.15668878489 -0.00497933596114 -0.167916338491 -0.319686156718 0.0313440986806 -0.0189461639745 -0.3584305768 -0.469711805162 0.0687707233482 -0.344464030579 -0.104631944377 -0.0883007833302 -0.463644873948 -0.0093575518511 -0.468934925637 0.290753674664 -0.397938072393 -0.455153105099 0.295605898556 0.235118290956 0.111860117378 -0.13570955969 -0.0960352625373 -0.171719618138 0.126308579391 0.0314242467369
-0.189501518994 -0.0959149715984 -0.213874275731 0.192169079037 0.553813322553 0.394617762951 -0.0175134786003 0.334539179095 -0.323542703752 -0.132184954672 0.03429519153 0.216725460894 -0.14134834346 -0.111461467424 0.139011399396 -0.122303586007 -0.0555530012266 -0.310194156621 -0.185765183517 -0.170451420592 -0.130038675631 0.00390082004008 -0.274372253473 -0.430604954772 -0.306227566149 -0.327544867419 -0.0364857176435 -0.055626218828 0.141122547575 -0.254932753918 0.0631521358491
-0.23410418191 -0.0601340856149 -0.229835416891 -0.0977349692467 0.137062644373 -0.0971155280201 -0.0318488854545 0.409997981355 0.00305268968729 -0.11251501196 0.156437454279 -0.211213504563 -0.304509811128 0.179268542978 -0.13790701381 -0.0114222749494 -0.207671263097 -0.567564599466 0.0184718343971 -0.137832731821 -0.0518254744946 -0.175513168135 -0.513668922315 -0.429236598201 -0.453254682996 0.0644862506403 -0.32617647973 -0.0888161442975 0.145497846703 -0.238979336799 0.00596762504323
-0.238467819785 -0.144559372199 -0.48187951471 -0.240174212015 -0.00477410619587 -0.172639522841 -0.0951511722483 0.553580746423 0.127649571396 -0.0893632150832 0.0182082765239 -0.239647633453 -0.439245396855 0.384946910786 -0.367080677475 -0.127886865176 -0.174659849946 -0.552529421506 0.163211088298 0.00189468880135 0.307422247199 -0.352593298587 -0.510046102678 0.252180975121 0.0747313266443 0.792208463836 -0.291643418275 0.0363321310045 -0.0354834096388 0.0315080336959 0.0301889507107
-0.225299948487 -0.153435744493 0.101897893729 0.0218561549493 0.674552418154 0.0997780899906 -0.00012951500374 -0.0234461831417 -0.665459184819 -0.147153275252 0.115235164196 0.229247173155 -0.191472680375 -1.00900347413 0.388808550403 -0.0466797083425 -0.020459809558 -0.265073676972 -0.364301771943 -0.210747826969 0.141118887487 -0.0752036168443 -0.0849879286003 -0.328993153706 0.157151271313 -0.149688703979 0.375270072158 -0.0912788189699 -0.181196073601 0.0832223665985 -0.0639735199783
-0.0708062081601 0.0503937819942 -0.0635904290577 -0.0761074224636 0.226260895903 -0.3040054595 -0.0894037303465 0.0615965518882 -0.143438531344 -0.183321853764 0.0616538592866 -0.140795511474 -0.0421932706392 -0.410373396743 -0.0702354684585 0.00902607491274 -0.145271042193 -0.420294401836 0.0931885505669 0.14173610062 0.240096069955 -0.326466662347 -0.132271796355 -0.291224639134 0.0032935032273 0.224664100878 0.0184781642663 -0.0346748532225 0.0384336142966 -0.090317414534 -0.0732141069997
0.457343196981 0.385220217333 -0.239614528473 -0.240777618952 -0.122640671054 -0.624548109108 0.0417197417618 0.443726455101 0.873114039743 -0.132755420248 -0.0842706714781 -0.575237509181 -0.267204057757 0.336669470072 -0.646088044392 -0.121478365318 -0.0890090307259 -0.451955861623 0.591291429847 1.01615051605 0.371368260573 -0.241387742405 -0.222654535034 -0.00721221217536 0.189934955446 1.01509402024 -0.246040806758 0.0765951382747 -0.0990451444615 0.0647391526753 0.0127705842901
-0.54248590196 -0.321821682068 0.0517596588364 0.543082788645 0.880188608564 -0.273858257858 -0.0900774505961 -0.516191714091 -1.24884763748 -0.0310703684284 0.534697944766 0.158022071748 -0.0933806054539 -1.67136916233 1.07051910562 -0.0155260197556 0.0792635803016 -0.0382198181744 -0.858769539305 -0.616522466197 -0.0892627394657 0.282403703921 0.220462503462 -0.507651392613 0.432796281556 -0.785069569397 0.923776635844 -0.0796361541522 0.107497647909 0.351872160045 -0.0781964174273
0.299894585862 0.14538342593 0.0133763957505 -0.0736648350314 0.0102318959307 -0.645547427235 -0.0552556940937 0.0139798180289 0.364452575729 -0.0372155138847 -0.0294606846777 -0.454523311675 -0.233626104113 -0.509667558314 0.255586936601 -0.0339518417725 -0.0171766494627 -0.472561923637 0.304722687417 0.718729454378 0.0346468938839 -0.134258111021 -0.169517335436 -0.253248990218 0.0571981521638 0.00856554439664 -0.143107551822 -0.0985080762814 -0.0886363391575 -0.14386446515 0.0622617964766
1.56515786633 0.555766072585 -0.267824499291 -0.900517117818 -0.806388179443 -0.955223948386 0.191986130366 0.893944261704 2.63350639934 -0.0259521040014 -0.692544982074 -0.976778235797 -0.661190090045 1.13486539733 -0.713294853204 -0.0287905300392 -0.2078495134 -0.805851948773 1.75682946371 2.89376385747 0.26196164375 -0.663203449693 -0.536474046984 0.177680595872 -0.0241211201689 1.67375117498 -0.858674868455 0.0116662086405 -0.534980918854 -0.387867706075 -0.00786975234314
0.526180900856 0.614451664919 0.38276003349 0.784024353435 -1.46063034309 -0.604244746163 -0.114367837813 -0.233562428497 0.93670059706 -0.15102656633 0.0460225809927 -0.419710348876 0.403330513121 1.07224732872 -0.786545282636 -0.161415554604 0.00564390987153 -0.211857810812 0.981233609099 0.374620362527 0.0730369483394 0.154418366364 -0.680443964651 -1.12104279657 0.0894363287081 -0.0469020133444 -1.61233819358 -0.0569666952525 0.300843534139 -1.28519503125 -0.0764670525288
0.277411804284 -0.243940050669 0.423037818366 0.12376359742 -0.440523863793 0.203079791486 -0.0613826936734 -0.499905438186 0.0373892903118 -0.0256262563075 0.0676389963094 0.521490254747 -0.422517855688 0.179368772607 0.456505240615 -0.0459258958788 0.198753195807 -0.931641303463 -0.0294633628009 -0.2098137705 0.218210339236 -0.5679177792 -0.23258525045 -0.631987321169 0.644600941602 -0.397169713353 0.0672212536927 -0.13037568984 -0.180298036681 0.131746668912 -0.00275598667424
-0.493038300673 -1.16788137721 0.19526095206 -0.833342619407 1.19191598637 1.81176172095 -0.140546358786 -0.955130635355 -1.21040688316 0.131031300194 -0.408724316958 2.00778042518 -1.32324806388 -1.14023589006 2.46684819376 -0.15830083238 0.258032530516 -1.5635688727 -1.03271157638 -1.13989953657 0.693651302161 -1.30184963694 0.860808742183 0.431237033859 1.54206816135 0.258207200875 2.88836100688 -0.126919430627 -0.803331433526 2.18003279926 -0.0181627444498
0.28429814479 0.222361837582 0.227645217255 0.715810022523 -0.895470816516 -0.0173150104453 0.0101020405277 -0.30053247456 0.297546348845 -0.149214795189 0.359950579446 0.0900545018059 0.319446922742 0.740438455627 -0.267181695605 -0.0878913679248 -0.0355811955342 0.0453218736989 0.36725067639 -0.0584744073394 -0.0582538662285 0.193310311892 -0.195932912104 -0.860119381414 0.0622807841341 -0.397002138787 -0.944972543612 0.0461204873422 0.15072001795 -0.644925001549 -0.0241252015875
0.159508940785 -0.0662809650679 0.245084870122 0.281270031504 -0.636547997916 -0.0877419438538 -0.0662758001366 -0.550238605977 0.0148423305838 0.0277115124629 0.061769908711 0.310623986907 0.0523037696416 0.265683714304 -0.112480174983 -0.0522334149248 0.0759851771805 -0.498485741523 0.0221896372595 -0.299484464665 0.0691080943673 -0.201338240669 -0.068900568172 -0.430887338108 0.312662840636 -0.114490594279 -0.230984683703 0.00802928791555 -0.0785680830344 -0.0750134166413 -0.0589505857929
-0.270101114028 -0.452640350051 0.32342121595 -0.450244552743 0.261529940763 0.629611821682 -0.0546330941326 -0.618856885917 -0.585096688164 0.0506580994535 -0.141491457035 0.838884625367 -0.387064569075 -0.511029787425 0.713115914855 -0.101347573451 0.30086154477 -0.917103598275 -0.188606487398 -0.688333994338 0.358848473637 -0.561640896475 0.545563461669 0.696457927517 1.23386396769 0.89713656505 1.08541934674 -0.032574040226 -0.352099938828 1.31583825203 0.0929178988146
-0.0435878355932 -0.0848379229656 -0.0486959391375 0.830656741476 -0.237782967437 0.123701307576 -0.0500325043511 -0.33144011785 -0.201547301132 -0.135333659793 0.220836067657 0.307700646084 0.429021050528 0.239622954243 -0.0213751001372 -0.134388798643 -0.00865309261147 -0.0111361362227 -0.0442290960143 0.0451683362496 0.0679925869954 0.362367596083 0.1399613146 -0.858015321696 -0.157621517892 -0.713008706684 -0.121562169773 -0.00694837692575 0.0695391025049 -0.151728258223 0.0423129202661
-0.161076952876 -0.187923303458 0.081924356698 0.211451307241 -0.105019720931 -0.185025915712 0.0108253698046 -0.251944707972 -0.0682244619438 -0.122182603279 0.0999048168531 0.146876632522 0.138798473243 0.166693075566 -0.227222236252 0.00902276937323 0.183127323897 -0.352048955213 -0.085328203331 -0.18196359091 0.0360939201479 -0.0219851099701 -0.0184564679591 -0.343116945634 0.349755466334 -0.123874859433 -0.0712870036289 -0.101325466061 -0.361904420365 0.187077510966 0.0215641769302
-0.271589500042 -0.228047911024 0.272176558477 -0.547697456499 0.0939631028666 -0.013596856683 -0.101411830514 -0.154175059443 -0.231369798333 0.0288421088174 -0.234666690515 0.249124165792 -0.0954003336145 -0.250322818843 -0.0671102039874 -0.0958062640315 0.191324032562 -0.683843312485 -0.0119078715253 -0.345037826731 0.387718600429 -0.389734427024 0.144119760476 0.908609978855 1.11713932856 0.965835584248 0.347827397094 -0.0111684852777 -0.602271072814 0.943196048898 0.0632448263802
-0.373851921339 0.186719230098 -0.0864096568765 0.86168734113 -0.276642137038 0.194350494798 -0.0843888748579 0.113059920333 0.0477938084619 -0.120023395811 0.0412077432307 0.25592752653 0.302676066171 -0.167774795602 -0.421517296107 0.0161079726932 0.0616931376848 -0.0792508827074 0.141245277886 0.186984248049 -0.0721729363618 0.112689762012 0.0818763335295 -1.12584882841 -0.426256245976 -0.648956987829 -0.0933643611957 -0.0816183626904 0.126948279448 -0.214224157617 -0.00379611450945
-0.65289927824 -0.123197208073 0.0999765484356 0.346651639278 -0.158833534192 -0.0506116786068 -0.0719122425311 -0.0500431893837 0.0390756250693 -0.117555598514 0.130119035362 -0.00685903454506 0.0929150993319 -0.15256925804 -0.673306652185 -0.121299813016 0.120112717077 -0.385328412662 -0.0763212470052 -0.183765996381 -0.0129272608953 -0.258059598044 -0.0351204577466 -0.58593955289 0.0725259615976 -0.273021164377 -0.12967995475 -0.081004858537 -0.098812021299 0.0283787745196 -0.0654955242911
-0.538652708269 -0.0347317960173 0.194443752945 -0.52804601348 -0.086042237379 -0.0802928196936 -0.0477277098988 -0.128459932855 0.0645443103497 0.0306716061297 -0.180473531524 -0.126680948258 -0.17909135903 -0.0652945538515 -0.715473354858 0.006446447455 0.384371654804 -0.587012399077 0.0445830366323 -0.212645407674 0.362757275793 -0.494817684663 -0.116496605949 0.372841849284 1.17999341286 0.785779384861 -0.086699163671 0.0160049691036 -0.296762886026 0.593027812222 0.0680935048775
-0.380500235947 0.140228764202 -0.211396463606 0.668646039118 0.211992950343 0.330083791038 -0.128835425296 0.305044626094 -0.387072103812 -0.118555473054 0.0800168113988 0.225860651165 0.618211903754 -0.0684891546426 -0.134966814386 0.0552781056021 -0.0116422333393 0.192794414166 0.209403906762 0.114927345167 -0.214774237143 0.284815986669 0.143235695219 -1.43122833487 -0.475206242461 -0.815955296115 -0.209269713486 0.0197235960441 0.187127028671 -0.429447050191 -0.0629401217465
-0.524579125399 0.132034271189 0.0268450248167 0.130654969893 0.0905892722644 -0.113254563665 -0.0018042154155 0.159951431746 -0.209482589415 -0.104732666851 0.123793635701 -0.186380744527 0.320918921769 0.158819299529 -0.265413028701 0.0351913643737 0.101987466219 -0.073303105568 0.204212124867 -0.293307741792 0.0628401437974 -0.0692869889523 -0.349645709501 -0.603708264043 -0.0825455992771 -0.176961004819 -0.354767955516 0.0495378341072 -0.0609268550288 -0.20286545341 0.0255585558794
-0.509019836836 0.0377942435757 0.305479359332 -0.366929618787 -0.0721406461783 -0.208654269848 -0.0362235425661 0.295955913276 -0.108838262241 0.0151499506639 -0.154830518816 -0.493755002407 0.0913609758408 0.471198955355 -0.698701806272 0.0147556153564 0.337998923412 -0.118245584985 0.349923837973 -0.23714817348 0.375079479103 -0.563747560425 -0.428438298217 0.272203253823 0.857080532217 1.00951364901 -0.108993181646 -0.136191505023 -0.265600791924 0.379708288616 0.0159528123533
-0.193477255611 0.0325669477683 -0.0880720339091 0.679742591393 0.633606310923 0.460622007105 -0.0304500729099 0.124820439018 -0.460481069002 -0.0663191369119 0.329530341128 0.198003668378 0.555499788975 0.0805826527111 0.379077247069 0.0405316779003 -0.152438342541 0.0110051135265 -0.164894050806 -0.30207212183 -0.131549456699 0.0527322967961 -0.00590777540822 -1.2732135585 -0.306472815034 -1.16238913152 0.180500320922 -0.031180968263 0.303464274159 -0.312187924326 0.0480524583608
-0.00178555121114 -0.0344664412623 0.000220231227487 0.168552959422 0.408623543693 0.0931724753407 -0.132517563504 0.0983532068518 -0.205873165719 -0.106040415516 0.155163312726 0.00906093122378 0.314324400015 0.45007931953 0.0981883997897 -0.0575279075027 0.0745434479097 -0.192525015057 -0.224523807419 -0.149649222682 -0.140587433464 -0.283718049378 -0.328009257952 -0.534228661309 -0.0046381341666 -0.190482570815 -0.0360147945189 -0.0931760061663 -0.118437272779 -0.205943958968 -0.0168839045288
-0.077012839484 0.0255238210085 0.116619681093 -0.358371919959 -0.0276567791685 -0.298035237854 0.0696304398909 0.391208018799 0.113548139923 -0.0778864652234 -0.221445972261 -0.471323495276 -0.120008576634 0.832491375323 -0.460715293387 -0.118398509159 0.269283759816 -0.455087940901 0.232712085234 0.231204527942 0.346908821718 -0.780608406214 -0.595272972774 0.719865438191 0.987440610441 1.40552690657 0.0222569474157 -0.024419391432 -0.34097492797 0.331436209427 0.0119582603646
-0.171830216286 0.110223320876 0.202211020535 0.676552710734 0.501681541929 -0.0868640685862 -0.0833117281305 0.109291424989 -0.789353306264 -0.0321457983522 0.518683299625 0.0773591629307 0.332156573876 -0.777355520728 0.466180064603 -0.0163222488225 -0.0697092438438 -0.147371855313 -0.346366659429 -0.151324194458 -0.0913901126766 -0.0896584637617 0.138189400949 -1.22929198955 0.0636152173731 -0.89929402515 0.29355126117 0.0646241981095 0.302783559385 -0.208288643745 0.0640979246846
0.0831736352867 -0.0156380488145 0.30154201275 0.175727552854 0.23564246924 -0.32470886756 -0.0616791264944 0.224351558712 -0.331130375927 -0.184527077216 0.179570835573 -0.331830311092 0.210949945362 -0.415579664198 0.0671714474097 0.0357534851015 0.0203169242753 -0.4604720937 -0.0623557450299 0.0711278177282 0.072569909354 -0.439180820974 -0.254524533043 -0.711023743871 0.249882623518 -0.107505629296 -0.0261479304007 -0.0285696946226 0.166925013914 -0.0608846258802 -0.038181165873
0.586719511397 0.314798774471 0.313422285185 -0.462875214894 -0.253032585689 -0.742801827239 0.10266908914 0.505008711063 0.696595737953 -0.150642328772 -0.495835440481 -0.620648572248 -0.255453997393 0.475568474418 -0.796327281278 0.0309625619549 0.39596007121 -0.645781348744 0.538363187692 1.12928642017 0.427839581833 -0.818823307467 -0.634607571698 0.617163193052 1.03154012111 1.87783162168 -0.331030422177 0.0156456475445 -0.0758121565852 0.362796881127 0.036368763736
-0.331170311905 -0.179111364992 0.0574859910035 0.816894796029 0.857082390808 -0.357595772227 -0.181038105143 -0.247740574407 -1.38836881689 -0.0878550276873 0.653587373738 0.103369978652 0.296981680285 -1.35762517086 1.02831618849 -0.0139470629649 -0.0406149242926 0.142016253683 -0.824221953018 -0.676480620154 -0.178368276225 0.142870526382 0.551126079606 -1.35173181414 0.087751889356 -1.7524117824 0.64465361934 -0.127323355461 0.489823707993 0.0358959431053 -0.0513749707002
0.481379923332 0.125647234035 0.348422284814 0.162219097533 0.0626493832699 -0.784856512377 -0.0265629747743 0.00902920145408 0.256015305111 -0.190807222116 0.0991393989628 -0.412692030307 0.0390133896203 -0.509019647171 0.194739614764 0.0175293055567 0.190835679084 -0.3627289261 0.130546420092 0.506377781416 0.145763093837 -0.287045320778 -0.1856785666 -0.461082504421 0.299543256486 -0.239281802076 -0.108703204417 -0.0155178504515 -0.0206387168292 0.0201576982185 -0.0570822319734
1.68729671318 0.483379737122 0.23651877785 -1.07762755303 -0.845016964991 -1.29759943099 0.0388146155315 0.823488954488 2.4435029547 -0.0659956383043 -1.02890703968 -1.12023129123 -0.714757554621 1.03872571184 -0.721289481286 -0.0339122696079 0.274960467166 -0.966286954764 1.51113969881 2.53638953857 0.541395829148 -0.996388998681 -0.660702311329 1.02257406703 0.880008578315 2.31228976115 -0.706307158792 0.0624177359417 -0.661382292926 -0.00375119414145 -0.0552786138018
0.288677076514 0.725740808062 0.350162347353 1.47463844681 -1.49012224587 -0.413541677166 -0.0364941873106 -0.357521034902 0.832780704373 -0.106658078435 0.267968424219 -0.0417060023532 0.670378353548 1.19942959828 -0.24435248758 -0.072364577995 0.101675036034 0.122200866538 0.852523079865 -0.201902938904 -0.152278714396 0.23528277241 -0.245058997636 -1.65540947409 0.170257198127 -1.06292297926 -1.83977292096 -0.0187474080996 0.775805761613 -1.56734554068 -0.0562530723276
-0.0905378042628 -0.360249620493 0.643291782351 0.183755608478 -0.404419673907 0.406495018811 -0.0504908267303 -0.684508890019 -0.380924006077 0.0572756883552 -0.135104774785 0.627804361223 -0.115784728541 -0.084666065407 0.956929465889 -0.0219776567102 0.536174723433 -0.824004490721 -0.319141022056 -0.645523924758 0.343047925567 -0.915088947907 0.0661582880554 -0.451269367396 1.25240505339 -0.519828749485 0.334058565658 -0.181016578799 -0.145628628375 0.450084138267 0.0169856971516
-0.957329497571 -1.40775221824 0.920390975362 -1.11596832877 1.19408332317 1.73757117342 -0.0789354435147 -1.26474374512 -1.737569242 0.308877047538 -0.754447439766 2.07779395224 -1.27199585656 -1.71666174661 2.61954902237 -0.116247146133 1.28711787328 -1.69350971287 -1.52855541047 -1.75967439856 1.25475925939 -2.00856896335 0.670033435632 1.94047838579 3.14613774634 1.15653033812 3.12065904456 -0.266763159693 -1.21283735047 3.00134053982 0.0588590815595
0.330432368028 0.633522219826 0.247943581277 1.0690264708 -1.18620469375 -0.0749914035971 0.00315634038582 -0.313978559816 0.706352543021 -0.0259962623523 0.484489384211 0.27349094254 0.942126429843 0.978103640795 -0.344851958768 -0.0935944279197 -0.0277815918785 0.239037926039 0.586887516052 0.304009105629 -0.40532164079 -0.0192701933392 0.197840541044 -1.78189603761 -0.530908115818 -0.995644703738 -1.48929748775 -0.093684763095 0.4217368361 -1.40403910185 -0.0385250973767
0.101153750987 -0.129372471179 0.562918227153 0.287378015268 -0.386940097981 0.0543082922655 -0.0304629323702 -0.595927430552 0.0114208184173 0.0511994300237 0.0996520527175 0.454880509923 0.280508553607 0.214335918431 0.275649232359 -0.0313685925206 0.256347488604 -0.450989927191 -0.0921491822624 -0.108160011589 0.183881723051 -0.787514814178 0.0455106371714 -0.379415412149 0.63071562063 -0.21884210054 -0.411787458603 -0.137662548694 -0.243304321304 -0.201813188875 -0.0894023115227
-0.616070381592 -0.611073994231 1.04878668864 -0.800638356643 0.598467643446 0.66687109225 -0.0676169224234 -0.822480637697 -1.10011664552 0.136224513759 -0.669406572903 0.90297662782 -0.296907447138 -1.03297894426 0.685764340641 -0.166660669573 1.0148031175 -1.02544240559 -0.73360864765 -0.945678157682 0.894107057868 -1.41601249243 0.169755743744 2.04770121224 2.62921660132 1.75735295172 1.39717561872 -0.14863497239 -1.05152807973 1.78228797949 0.0428213853419
-0.0409325833647 0.456052870049 -0.0819994421978 1.10552717285 -0.213442129246 0.202465088058 0.00909414287465 -0.0351871657223 0.208897439343 -0.193907033124 0.543026787046 0.390503106869 1.10327338018 0.667059423511 0.106679204479 -0.0911008939289 -0.117290890971 0.27220422353 0.254863555189 0.204421568508 -0.544591222113 -0.0504547540782 0.512023204302 -1.74131613393 -0.60111062015 -1.01845956863 -0.577699740074 -0.0669696530868 0.49949768836 -1.059730581 0.0196709618436
-0.260345080735 -0.0901590410572 0.440020641446 0.18407699488 -0.037658278164 -0.0481335374776 -0.0338110794116 -0.410925744211 -0.12267842449 0.046235511024 -0.0413595910151 0.133435876334 0.452771532305 0.197299832623 -0.118885804349 -0.14740939823 0.439292931537 -0.413250839861 -0.101596216122 -0.325351014275 0.0991744499951 -0.647949315866 -0.0293730461242 -0.160437206638 0.785515437524 0.227190922761 -0.0773642037122 -0.155104088084 -0.3125640724 0.0432377566855 0.0470901449219
-0.688152825759 -0.479289744379 1.01306493071 -0.866381451354 0.351107835131 0.0918267969727 -0.161992301693 -0.481799583007 -0.992942742857 0.150477970086 -0.588995429148 0.172253000934 -0.131928743578 -0.698535948294 -0.280524284957 -0.215603472714 1.17598431786 -0.845632628145 -0.534760837226 -0.822172460169 0.841243426789 -1.11795352087 -0.213632890637 2.44214365998 2.7633621318 2.28615619381 0.818536213729 -0.140398855777 -0.954584842401 1.63119867964 0.0978191715442
-0.373802523777 0.168519615432 -0.130699017318 0.949509576179 -0.154864452546 0.349687117179 -0.0899195236183 -0.0476738488661 0.262787720512 -0.108380285257 0.463630529227 0.556260469676 0.888696323457 0.454763522452 -0.447796290327 -0.0994859731978 -0.0500872925694 0.221765267114 0.2913453727 0.223790993491 -0.397099801091 -0.13816442162 0.586430997191 -1.78452113181 -0.496237632776 -1.34207297042 -0.142650057673 -0.0870740683777 0.577783550955 -0.822649813398 0.0225401803868
-0.630669860347 -0.1680926513 0.529886162219 -0.0138412538135 0.0875872573892 0.0278361101507 -0.053351648912 -0.533823940035 -0.176638344968 0.037851568396 0.101559929991 0.223692637191 0.343578910473 0.0199301930135 -0.648415664985 -0.0767274982369 0.566950549754 -0.424235457689 -0.213293259798 -0.29034532142 0.177757949241 -0.763328139548 -0.129569270503 0.0169553903576 0.969128316861 -0.0413922644457 0.223258454975 -0.0184391714313 -0.365109645553 0.0799600034927 -0.0780290556288
-0.926636550838 -0.551283196708 1.12117765207 -1.021330867 0.154104868351 -0.145861042845 -0.137109994753 -0.536107308343 -0.742201014929 0.0115503634012 -0.719395626152 -0.0862916061449 -0.151842096051 -0.299983319486 -1.03903582741 -0.148599342228 1.36366212019 -0.796954944297 -0.555920488377 -0.587145192107 1.0112721463 -1.41980990538 -0.564242558346 2.51017252909 3.0206543915 2.39227630927 0.484041482295 -0.032294138883 -0.899869795036 1.44524591785 0.098823804985
-0.51884648908 0.320242520975 -0.24867498581 0.791616100702 0.520928956862 0.333497592723 -0.101113509277 0.130794405412 -0.0126741207637 -0.117595362541 0.470726482493 0.41682456761 0.712380613625 0.46004818592 -0.101253400128 -0.0721874825746 -0.113865777153 0.267192030965 0.242013293875 0.199199139704 -0.46562182408 -0.12003559096 0.404706994495 -1.68183911847 -0.617656367694 -1.39099319418 -0.202127661402 -0.00694007723405 0.316050008321 -0.918570620898 0.014713493038
-0.36190120302 -0.241101974866 0.318537086481 -0.154692545077 0.369625254271 -0.129701894442 -0.0272441029782 0.0746135027147 -0.140566207849 -0.0648999313374 -0.139186501881 -0.0864416973819 0.285196728204 0.189485015085 -0.598430369664 -0.0426839819635 0.479290361021 -0.440660445347 0.0302912502189 0.0552184084693 0.130630347343 -0.820456108524 -0.344739800492 0.0457782760869 0.56873108453 0.0346060852302 -0.0804161964403 -0.127415317113 -0.532651015858 -0.0733683244783 -0.0137631205134
-0.657224988249 -0.351896130658 1.15528942624 -1.26134245229 0.198744946835 -0.417973718777 -0.0938267972535 -0.109724948399 -0.331793235573 0.0848597797322 -0.776852618317 -0.36938004009 -0.205317262435 0.194104883891 -1.26029135883 -0.146782082925 1.24729813092 -0.772507971304 -0.124712305825 -0.113813009867 0.942957156466 -1.53122178421 -0.868684653518 2.59892811419 2.5179532926 2.59046526501 0.169171062657 -0.0593112824662 -1.16822349291 1.06196026814 -0.0252481345508
0.11440658405 0.278599810302 -0.124347077372 0.965549006218 0.609664409219 0.0588011849248 -0.108309918086 0.329932391545 -0.208084982976 -0.0517846231889 0.45354559564 -0.0282972058896 1.06693781837 0.59469141901 0.0276471286937 -0.0968767139815 -0.213185414628 0.363828666958 0.250685766886 0.222364940296 -0.428504135125 0.0881993280263 0.244813270509 -1.66977643215 -0.949683835534 -1.70712621707 -0.281596127866 -0.0367036422518 0.464789343491 -0.933827338545 -0.0852125849655
0.0768514783078 -0.0699732095333 0.403934956787 0.0682551201511 0.508709770315 -0.451055197631 -0.0367313812234 0.293834314736 -0.159771427947 -0.0616237482491 -0.0055791920058 -0.6453774157 0.581477347685 0.401247747197 -0.293116726037 0.0279707064371 0.355517493694 -0.195103074527 -0.0338658421203 0.0730274033973 0.0675181565556 -0.719994714983 -0.57375704074 0.0740786903768 0.183144323867 0.196385105462 -0.0604711732016 0.0162854503447 -0.376452465077 -0.173872207258 -0.061374453114
0.21236185014 -0.278444915052 1.274022395 -1.02283907644 0.00633456656678 -1.12894707652 0.0365546170234 0.365836154751 0.341587789781 -0.0858166776075 -1.05326110204 -1.15169599615 0.0430655274431 0.616055675223 -1.2754618443 -0.138202712005 1.28034157571 -0.693846497144 0.0449781421862 0.405595775194 1.10038679513 -1.39445909394 -1.31264581091 2.75508482043 2.33737719521 3.09852266501 0.0174218168216 -0.015779811495 -1.1873873903 0.856631252094 -0.0134067237034
-0.142766454597 0.170153256846 0.00607380345408 1.27905930511 0.730435235023 -0.245730368743 -0.100008269062 0.165668007081 -0.773768901227 -0.154459343318 0.761431552655 -0.0935922379888 0.840035453016 -0.597163361593 0.508952541863 0.0342083206734 -0.232234816468 0.275530549271 -0.420501398891 -0.372329398382 -0.402216712975 0.143310613414 0.540550522509 -2.02922415757 -0.723649158588 -2.0778298608 0.208639979256 -0.0197754208195 0.81962607574 -0.728272726189 0.0213490845476
0.133079522371 -0.239264299276 0.591396558572 0.20067177222 0.349623694266 -0.957694895959 0.0149147643868 0.153038885868 -0.0831467832984 -0.15406543263 0.140461381439 -0.859712280914 0.515902370379 -0.343664443838 -0.19532819464 -0.045979720088 0.331206467352 -0.172716280748 -0.293935844845 0.234346592562 0.259413364341 -0.638010662305 -0.512947218199 -0.176285439336 0.417772954705 0.182862191149 -0.0614784285403 0.0401966359759 -0.0425551088701 -0.31713336191 -0.0734509644185
0.70248889601 -0.0583891278641 1.27523737564 -1.19051512751 -0.603279023645 -1.73477378475 0.145602931549 0.352129506767 0.991263068438 -0.0386637977804 -1.06104430033 -1.48565501873 -0.0967245135538 0.61690841679 -1.37071665723 -0.00674470340284 1.32133299061 -0.850433824268 0.410071424311 1.23291390795 1.29255374302 -1.41022494071 -1.56138487065 2.58613523841 2.12530937063 3.63150913715 -0.252849218649 0.0127681529978 -1.00013164266 0.742749884127 -0.0261753357429
-0.129665999426 -0.161297793371 0.134200149126 0.997187997438 1.04645312701 -0.298760214182 -0.014157184545 -0.23640101059 -1.09683570648 -0.179499875761 0.736079912503 0.239898740947 0.674559859229 -1.30048625988 0.961667050236 -0.052226181547 -0.0254036272713 -0.00417955339613 -0.925572407993 -0.491859705088 -0.375834845448 -0.297321990291 0.814552608811 -1.98368352131 -0.146346260658 -1.95196547498 0.832916914828 0.0319089801777 0.64768522621 -0.205925935141 -0.0554519409316
0.489171629773 -0.251666740254 0.773517882592 -0.309984655396 0.0311965793996 -0.979815930908 0.0959086481693 0.188474774705 0.564586292012 -0.0331373147385 -0.161336900863 -0.663043141612 0.155352699062 -0.469583019416 -0.250008538923 -0.0629294940535 0.608347195627 -0.677101672582 -0.0197725291602 0.775540716476 0.388649838628 -0.999646276884 -0.466749228721 -0.0822210852367 0.660886532691 0.377061872733 0.0194815834689 0.0768269742322 -0.507379574384 0.104245788567 0.0484774474702
1.73100810904 -0.0260031226623 1.35698156701 -1.84173457459 -1.12573168809 -1.953310381 0.203560197719 0.946057579919 2.75001462519 -0.136174522196 -1.6924110743 -1.69504482782 -0.869137216534 1.11128252988 -1.5553434963 0.0861177593867 1.24438556427 -1.42239759004 1.26160441972 2.95658324597 1.38981943733 -2.02545285531 -1.60455424087 2.70570987726 1.97618392315 4.35289678189 -0.85212685609 0.107161319955 -1.52160600147 0.558803830579 -0.0187752460722
0.0310643516732 -0.0583328526372 -0.0573344302234 0.0247367142437 0.00721716213879 -0.096758000706 0.0486613271299 -0.00145793464528 0.00762781999744 0.0581498280722 0.0643928443942 0.0314901195263 -0.0735785520749 0.0863130701906 0.0706670441767 -0.0664554577956 0.0766032557334 -0.000769170131813 -0.0317063009658 0.0558287955394 -0.0517469413053 0.0483486804634 -0.0360949229028 0.0618866845913 0.0163137746982 0.0602160212049 -0.0751754206506 0.0741652026176 0.0316094552611 0.0192696290678 -0.0396336298136
